24 300
、 0.10325112 -0.035922226 -0.12218039 -0.13729508 0.22412926 -0.26183602 -0.09919559 -0.11210402 -0.08318375 -0.09581013 0.03776928 0.24528633 -0.13819216 -0.14644805 0.1396523 0.10771887 -0.11033513 0.16835542 0.004354048 -0.0151840355 -0.17865218 -0.0026540207 0.19898462 0.19166629 -0.04186286 -0.18404955 -0.28382352 0.25834417 -0.104463734 -0.09842357 -0.015961807 -0.03282183 0.26462385 0.08189808 -0.3572612 -0.2373542 0.13151625 0.025243923 0.05207088 -0.18229154 -0.044012375 0.10803225 -0.23547818 -0.14280403 -0.098232485 0.17949054 -0.15074675 0.15259817 0.08978873 0.065427996 -0.069103606 0.04402078 0.1571218 0.013165702 -0.19331758 -0.1873569 0.035418987 0.066350125 0.2282534 -0.061118536 -0.37006122 0.0048330803 0.0825742 0.020290192 -0.13544767 0.0039665275 -0.07969226 0.05658543 -0.08466203 0.10752047 0.027271383 -0.08196929 -0.13642888 -0.18514484 -0.35339162 -0.27588585 -0.056333836 0.0911288 0.1827154 -0.19326504 -0.5426935 0.053982913 0.04221387 0.03158276 0.028326858 0.07768695 -0.03639408 0.013743228 0.21608116 -0.17356952 0.41309303 -0.39309505 -0.32967135 -0.01902038 -0.2890388 -0.15213531 0.0067956103 0.002963384 -0.19039701 -0.1308652 -0.027247189 0.2676942 0.21978708 0.0024789486 0.066741265 -0.06319693 0.14028205 -0.028106641 0.11942417 0.11988017 -0.0627553 -0.23652756 -0.09717759 -0.15439804 0.16037935 -0.0016527226 -0.15012641 0.10372916 -0.11328748 0.32220522 0.08835842 -0.0010358938 0.009612322 0.36896077 -0.434922 -0.024897583 0.24278703 -0.1086619 -0.29112345 -0.32216373 0.19348475 -0.086988516 0.019236142 -0.11224623 -0.30492127 0.08790902 0.3808219 -0.035246227 0.23212408 0.29548746 0.30790532 -0.259583 -0.22500452 0.04054037 0.09987961 0.08041162 0.14520665 0.050706208 -0.24579763 -0.068535544 -0.23413779 -4.463598e-05 0.0029010363 -0.16071787 0.11316081 0.2370513 -0.059014406 -0.045898303 -0.010246448 -0.14215611 0.11947813 0.15577441 -0.1560179 -0.1848191 0.04244539 0.26895133 0.108969435 -0.07907766 -0.18051985 -0.27600935 0.056048393 -0.18023306 -0.054222737 0.26825854 -0.04591263 -0.011956405 0.16231456 -0.007194 -0.22120842 -0.0016470548 0.10934351 0.008805394 -0.27902412 0.10030379 0.34094593 0.0006636649 0.24600336 0.022826776 -0.10981939 -0.31895927 0.0029108638 0.028732326 -0.07237306 -0.17588969 -0.31945586 -0.16974689 0.21169554 0.0980361 0.070928626 -0.07657467 0.20068847 -0.1271616 0.034842607 0.121024355 0.043899417 -0.10643725 0.051931232 -0.38908276 0.085014604 -0.13365033 0.054432996 0.04254227 0.016673913 0.09829872 -0.07525176 -0.054744314 -0.15344639 -0.025854701 0.2336502 0.05239181 0.08498546 -0.21881996 -0.1180893 0.023700556 -0.11463005 -0.08439827 -0.17533419 0.2872297 0.019259863 -0.03463255 -0.27777904 0.027599636 -0.15577658 -0.022494555 0.26607084 -0.17284428 -0.0989668 0.41686818 -0.12897134 -0.22112031 -0.24552026 0.15813033 0.14466959 -0.058494538 0.011962521 -0.24396493 0.34947452 0.19812636 0.01799488 -0.035556898 -0.007809305 -0.13917544 -0.023352195 -0.021842573 -0.03989755 0.118278794 0.009990586 0.01916365 0.06977791 -0.02704481 0.1230849 0.37342235 0.07802856 0.014534175 0.1013946 0.10570263 0.10999315 0.0074058385 -0.07514096 -0.05146795 -0.06456347 0.047827117 0.123473085 -0.11464778 -0.038030863 0.14620186 0.110436186 0.035827313 -0.07926264 0.0146466885 -5.5464632e-05 0.040374972 0.26336485 -0.08663985 0.17438538 -0.16987057 0.10521783 -0.038322512 -0.03514874 -0.1272403 -0.0654874 -0.11620878 0.014020083 0.007833356 -0.06891378 0.26633346 0.0019317332 -0.07034387 -0.015091602 -0.11210444
の 0.08315397 -0.12228568 0.040523216 -0.18443674 0.2909274 -0.29345167 -0.14850834 -0.06371724 -0.18834482 -0.07032865 0.01557045 0.20307788 -0.17899014 -0.29421085 0.22591071 0.012995354 0.08067029 0.088698246 0.028177865 0.08503049 -0.20452134 0.14682052 0.12918279 0.27278018 -0.06183201 -0.08013797 -0.26374996 0.2834405 -0.19088459 -0.1864519 0.039953638 -0.024771791 0.1679245 0.062859155 -0.15483247 -0.2003471 0.11927193 -0.06354839 -0.03623658 -0.15971889 -0.24334098 0.10045875 -0.18318726 -0.019796897 -0.08009512 0.19491084 -0.16795205 0.21858978 0.19615008 0.068743266 -0.020930767 0.016584385 -0.030863602 -0.019752 -0.21235527 -0.06362227 0.15538616 0.07092224 0.15837087 -0.057159547 -0.26212746 0.07612615 0.04625595 -0.10350391 -0.11147015 0.09376945 -0.112685494 0.08600696 -0.022074925 0.16732667 0.052533045 0.0866188 -0.062368322 -0.16934174 -0.3406816 -0.2514066 0.0808404 0.08053523 0.079805054 -0.2153478 -0.44355953 0.059571315 0.07772762 -0.052731182 -0.016579418 -0.077764645 0.03780243 -0.055418342 0.22096702 -0.235577 0.46134022 -0.34323317 -0.2532955 0.03333136 -0.30200747 -0.07528165 0.06597949 -0.0030827688 -0.12740259 -0.13480347 -0.040023554 0.32696235 0.23724675 -0.13083489 -0.038320497 0.027204596 0.04612281 -0.15192086 0.14902318 0.08278522 -0.06353129 -0.323028 -0.13732311 -0.09219673 0.25002933 -0.058353145 -0.14829558 -0.2267941 -0.11653751 0.18443434 0.13690867 0.023229014 0.1319038 0.36766085 -0.28226882 -0.0517835 0.14210168 -0.011262909 -0.22678298 -0.2089407 0.25808963 -0.07374261 0.029382344 -0.09753024 -0.15597893 0.14130645 0.39627483 -0.06491104 0.14120132 0.3684613 0.21531865 -0.08551171 -0.2848466 -0.094486125 0.22892357 0.11465955 0.24189174 0.020928374 -0.26838183 -0.095379986 -0.066591546 0.048052136 -0.10180013 -0.22749123 0.1764712 0.15489668 -0.17072542 -0.15424299 0.1727123 0.0042061573 0.1818419 -0.012617191 -0.19825235 -0.17713723 -0.0932172 0.34237802 -0.019429177 -0.1325463 -0.08073171 -0.2937901 -0.09185633 -0.05201973 -0.13862099 0.18928291 -0.14126424 0.005318537 0.009621243 -0.046105646 -0.18140118 0.17795318 0.10638044 0.108601175 -0.3453981 0.014380573 0.40656084 0.08346732 0.28086978 0.1096126 -0.025183488 -0.3760116 0.03661927 0.0006608383 0.0056205112 -0.1177045 -0.2539983 -0.14229277 0.103723705 0.0071541113 0.015267972 -0.19260988 0.2353524 -0.0039968505 -0.10126308 0.10091338 0.054663707 -0.023692189 0.07495603 -0.32615748 0.034381706 -0.007731971 0.10552748 0.12199953 0.030282203 0.10747464 -0.040527802 -0.00982682 -0.05978716 0.031907767 0.21837385 0.17807046 0.13235615 -0.092363365 -0.045793545 0.098789334 -0.1677319 -0.134105 -0.1864736 0.29738295 0.013530402 -0.13550027 -0.14651549 0.09594684 -0.32308576 0.06546632 0.16787171 -0.25794843 -0.05821887 0.20559362 0.03804514 -0.11709222 0.0069783367 0.22565198 0.16606152 -0.08320613 0.034561366 -0.18575591 0.07443906 0.20772731 0.053994954 -0.0027152046 -0.122478746 0.012079339 -0.024222031 -0.0081941355 -0.02879267 0.088719025 0.13979542 0.11211734 -0.09450046 0.082101814 0.21036337 0.39673015 0.11301557 -0.04422676 0.17580858 0.0945143 0.20465499 0.051159233 -0.09237195 0.01866254 0.14173937 -0.17276174 0.19887532 -0.0903436 -0.066294216 0.19195525 0.106135845 -0.0647126 -0.1397427 0.002178333 0.08840123 0.0330475 0.08552567 0.07104776 0.24611877 -0.0065576993 0.019893043 0.06306928 -0.00230719 -0.075350635 0.003953825 -0.05949754 -0.017187087 -0.12781453 -0.16246913 0.15535593 0.027712617 -0.17518565 -0.079784125 -0.20926096
。 0.03295321 -0.16374257 0.11393442 -0.13038558 0.20516138 -0.25890693 -0.1905766 -0.09949695 -0.32026994 0.05610991 0.15285109 0.20725046 -0.28527898 -0.16989785 0.24618977 -0.010591367 -0.030210523 0.10220187 -0.043146934 0.104693 -0.1660445 0.12446741 0.27929026 0.08919326 -0.030069228 -0.14874293 -0.34664807 0.16200937 -0.050115332 -0.20721805 0.12767474 0.022734867 0.1564528 0.05251831 -0.14235698 -0.24501842 0.13754062 -0.1276052 -0.0127057 -0.099830225 -0.1677427 0.04142815 -0.2605236 -0.013178875 -0.11762717 0.05140774 -0.17737806 0.21996242 0.10704269 -0.0044611087 0.083718546 0.1182467 -0.12492171 -0.026970256 -0.09743502 -0.055568796 0.091443636 -0.026539074 0.17741923 -0.0035988179 -0.25645584 0.07258204 0.0848984 -0.20980673 -0.21081907 0.11273374 0.14008209 0.20697704 0.009752969 0.079132676 -0.0971552 0.08178832 0.053544693 -0.2015453 -0.31193015 0.053610507 -0.005214686 0.08242445 0.045586325 -0.08166176 -0.54280055 0.14034688 0.06947431 0.09090026 -0.018947614 -0.08362082 -0.20041782 0.040697016 0.2022916 -0.258017 0.31745267 -0.29975212 -0.29123586 0.02286242 -0.37767783 -0.12253291 0.034366347 -0.051051155 -0.2089232 -0.19285671 -0.031746287 0.20974179 0.17297801 -0.12054654 -0.007756059 -0.10818553 0.0673524 -0.12431963 0.16073301 0.0622409 -0.15245187 -0.2420819 -0.011549429 -0.061738472 0.13793626 0.026547454 -0.099723086 -0.116602615 -0.21970919 0.17760125 0.14078785 -0.1308336 0.014556444 0.3800232 -0.31873983 -0.027315063 0.09767434 -0.08078781 -0.13563313 -0.25091818 0.22811428 -0.20749679 -0.020814046 -0.040563498 -0.21291803 0.24885942 0.4819142 0.036650576 0.1362786 0.39776114 0.1832786 -0.23164447 -0.16913185 -0.022536887 0.10358434 -0.0031056874 0.14412811 -0.13137363 -0.20934774 -0.1450903 -0.14378047 -0.020027691 -0.13200657 -0.26252282 0.018132012 0.390739 -0.2598793 -0.040199474 0.2476755 -0.005089294 0.2524172 0.03855251 -0.20640379 -0.13834114 -0.23587058 0.3249606 0.038893234 -0.09217406 -0.20628859 -0.2832005 -0.11810282 -0.07142604 -0.05555842 0.16658266 -0.11570327 -0.09461606 0.05386772 -0.05940828 -0.19596793 0.11935506 0.059414126 0.058897726 -0.29107675 0.09970012 0.37201196 0.08574037 0.3561344 0.028790975 -0.125887 -0.34888294 -0.030498864 0.07658278 -0.093808696 -0.110501826 -0.29151747 -0.21276222 0.032550115 0.15378286 0.10669626 -0.10877015 0.2089477 -0.018438298 -0.03190851 0.17829809 0.11342228 -0.019648353 -0.014961203 -0.40946162 -0.019320037 0.005575118 0.16649532 0.021734433 0.0509517 -0.015546767 -0.0627236 -0.11040258 0.10669666 -0.1338638 0.01251004 0.12700829 0.13250577 -0.07478206 -0.07749948 0.15371506 -0.114623904 0.042818386 -0.15211712 0.30529305 -0.012974069 -0.15127997 -0.12033168 0.002601677 -0.28053328 0.044562686 0.18141612 -0.30528235 -0.074063234 0.2139791 -0.08146835 -0.13363554 -0.017862964 0.40695694 0.3235034 0.029381402 0.061212726 -0.30185583 0.25416127 0.11644294 -0.032064673 -0.0957792 -0.006194583 -0.096400484 -0.014315253 -0.020299233 -0.007037484 0.16888042 0.10026059 0.12091352 -0.09149246 0.029725552 0.13844499 0.39202297 0.13358442 0.014094384 0.08106937 0.08820662 0.14300245 0.02838773 -0.052071724 0.15780851 0.113284834 -0.18154588 0.09832423 -0.103752784 -0.017562764 0.1618235 0.034039896 -0.05214443 -0.10588213 -0.014910733 0.17939779 0.0698485 0.21074632 0.010615963 0.085061595 -0.15879431 -0.002878032 0.14538927 0.04396 -0.038385082 -0.040895622 -0.10485618 -0.038219497 -0.058234088 0.00841962 0.16944428 -0.053665016 -0.16729532 -0.014294878 -0.10604538
に 0.13131519 -0.17158653 -0.08259855 -0.018920323 0.18399432 -0.32972702 0.008680278 -0.13198791 -0.13017116 -0.069130905 0.033336528 0.2664787 -0.13809343 -0.2553765 0.26895416 -0.13817428 0.10969582 0.12119298 -0.047280267 0.07348121 -0.3126934 0.17725097 0.12503238 0.24240239 -0.0890968 -0.09091581 -0.33465284 0.25026205 -0.12089143 -0.33202523 0.05217664 0.07165316 0.25868425 0.19599104 -0.17763498 -0.27698666 0.12716511 0.050628822 -0.04394609 -0.095709644 -0.13968492 0.050754853 -0.22078492 -0.11196463 -0.008479003 0.12197478 -0.02551295 0.2789116 0.2344083 -0.029017957 0.07497723 -0.07231972 -0.09923619 0.12471365 -0.27600458 -0.13097048 0.020179462 0.107548214 0.105373845 0.07482063 -0.21774584 0.07838567 -0.061530422 -0.3280281 -0.20603943 0.064616896 -0.021596057 0.09728788 -0.08355326 0.07102678 -0.052267227 0.13382876 -0.10084229 -0.19025737 -0.32642582 -0.08693085 0.032844514 0.21590386 0.11539961 -0.27583334 -0.54400444 0.16144763 0.14504346 -0.044215754 0.083391376 0.22416864 0.08967516 -0.1068231 0.15329364 -0.26435968 0.39218783 -0.29865265 -0.23775817 -0.017920671 -0.23880775 -0.07182371 -0.09473611 -0.09403031 -0.05594205 0.044637825 0.11104079 0.29014605 0.27455106 -0.13225983 0.14512308 -0.16733812 0.009285119 -0.064568706 0.1488128 -0.053133406 -0.03953489 -0.29646686 -0.19062977 -0.12143225 0.11020207 -0.004464256 -0.082917705 -0.27398255 -0.17334305 0.12136026 0.023366682 -0.015701892 0.14575012 0.35922977 -0.42596865 -0.083309874 0.17146546 -0.23763172 -0.2759897 -0.21818148 0.18091509 -0.07588956 0.074047185 -0.08439915 -0.10094203 0.19310123 0.43711573 -0.14462747 0.026098268 0.3773705 0.22203556 -0.17608899 -0.2668673 -0.06150051 0.22579205 0.053047065 0.28601116 -0.05775146 -0.18000701 -0.06789006 -0.053450044 0.050544716 -0.012463298 -0.30565634 0.16584401 0.2640256 -0.2747569 0.008365161 0.34306812 -0.038809933 0.17534687 0.02979189 -0.22015858 -0.20843583 -0.110433035 0.26447034 0.019663172 -0.13774712 -0.26087838 -0.17846063 -0.10014363 -0.024323057 -0.17184827 0.095267765 -0.09244285 -0.094304614 0.006929549 0.028743455 -0.031393923 0.12050563 0.12735158 0.03882773 -0.36232683 0.04789903 0.3451574 0.18803862 0.3347045 0.11192101 -0.11474203 -0.24430944 0.07486454 0.060242306 -0.023181979 -0.073558815 -0.38571733 -0.029727645 0.2010751 0.096974015 -0.07368269 -0.21594417 0.37562606 0.0769065 -0.19088683 0.13222873 0.029350724 -0.0073214583 0.015719308 -0.26192978 -0.021311523 -0.011607856 0.09357037 0.114356026 0.041047107 0.079346985 -0.005390505 -0.006082575 -0.064797655 0.12340227 0.14029326 0.1393953 0.19331737 -0.053007305 -0.09525397 0.09627229 -0.1941329 -0.04344499 -0.19636731 0.1712825 -0.010468232 0.009345786 -0.21681562 0.06749452 -0.27724582 0.032709073 0.20291744 -0.20708667 0.06451463 0.20971547 -0.08961554 -0.26251814 -0.06981493 0.21179703 0.32322943 0.045328405 0.0030936664 -0.16573131 0.29036033 0.12121887 0.020352766 -0.020063996 -0.05679181 -0.02071068 0.11146224 -0.039376065 -0.14251135 0.038854435 0.17399384 0.19712709 -0.0058194846 -0.026184017 0.049112402 0.43351784 0.10246741 0.06190023 0.11446966 0.014218263 0.05135607 0.019752579 -0.022354513 -0.061869398 0.13203222 -0.14599563 0.21360505 -0.10363213 -0.21476401 0.17298324 0.11350954 0.09485222 -0.21078688 0.0569113 0.2212327 0.084924795 0.13673323 0.03619508 0.119773954 -0.052199602 0.09234523 -0.06785669 -0.007421563 0.110706456 0.0053304643 -0.15555882 -0.074657336 -0.1354009 -0.12694503 0.13125168 0.025232753 -0.17962003 -0.0373506 -0.14436533
を 0.18907985 -0.24763352 -0.016797667 -0.15733087 0.3411122 -0.32200453 -0.11468512 0.02124201 -0.1653205 -0.03939005 -0.010835815 0.23361664 -0.18546629 -0.27806193 0.23347333 -0.11274011 0.13799523 0.27454767 0.07932231 0.07557211 -0.2881302 0.1795706 0.083942465 0.089845926 0.03675497 0.07380908 -0.19177993 0.20136176 -0.25225177 -0.33686307 0.2089852 0.060171675 0.29592222 0.23341393 -0.264809 -0.3822483 0.14033149 0.13005733 0.02579141 -0.1468666 -0.13914238 -0.094583936 -0.19895153 -0.0634492 0.024597747 0.2353814 -0.13903165 0.2260794 0.28035435 0.07465837 -0.012519757 0.0054878644 0.012727306 0.075968646 -0.3286403 -0.05774571 0.17343447 0.07331011 0.1839027 0.10807751 -0.096275836 -0.04151042 0.05178294 -0.08510521 -0.15004642 0.14216764 -0.05401772 0.1016219 -0.2231076 0.079081245 0.040531244 0.0021100785 -0.05336834 -0.0828506 -0.2733947 -0.1753693 0.055513874 0.023725318 0.18137303 -0.37867105 -0.41812962 0.15551835 -0.10998658 -0.10105357 -0.014839055 0.06786976 0.008876799 0.023888333 0.048935555 -0.2463801 0.41505462 -0.22851132 -0.20882826 -0.0034146549 -0.44759542 -0.0423639 -0.046085946 -0.16591246 -0.085592784 -0.061967224 -0.21192327 0.3697638 0.18185711 -0.066661656 0.11488944 -0.10428219 -0.023607438 -0.11972144 0.17441966 0.027866313 0.090207696 -0.2789689 -0.10550383 0.028640874 0.11355009 -0.14671941 -0.17925738 -0.25163996 -0.14517052 0.25151786 0.13137154 -0.10544723 0.10630296 0.41408494 -0.37627694 -0.12858796 0.18941596 -0.15610561 -0.1589133 -0.2677016 0.2351175 -0.0048171044 0.15961649 -0.1746322 -0.27500936 0.20055547 0.31635135 -0.1546037 0.0931707 0.5545103 0.14231312 -0.03463221 -0.34852728 -0.088744044 0.34652436 0.04542678 0.35668215 0.057553235 -0.3673386 -0.16940542 -0.048731335 0.016997313 0.026390634 -0.10164694 0.116234995 0.24829906 -0.23674828 -0.083392896 0.21287556 -0.1663642 0.04977598 0.028355341 -0.2332864 -0.15166654 -0.1646949 0.13241218 -0.0768661 -0.07066452 -0.1955468 -0.07014709 -0.23956022 0.039572723 0.0022719733 0.361811 -0.11200487 -0.17795785 -0.063488774 0.046793077 -0.1646207 0.1430851 0.055699423 0.084446944 -0.3506764 -0.12934369 0.47508833 0.08152992 0.31804207 0.22884727 -0.14484541 -0.3044077 0.06460155 0.0790114 -0.025461316 -0.08413984 -0.3971628 -0.16224456 -0.017101502 0.13846661 -0.07970982 -0.16164336 0.35440084 -0.029747752 -0.20248556 0.23633671 -0.01603847 -0.13813561 0.117048405 -0.22351812 -0.038079664 0.18885379 0.19765864 0.07902495 0.13248898 0.070389785 0.030615792 0.103371136 -0.04544567 -0.0320087 0.25069848 0.2716593 0.19654526 0.013796887 -0.054818258 0.0528788 -0.039123002 -0.03338094 -0.11823184 0.1304374 -0.049367458 -0.062442817 -0.25334594 0.14297214 -0.30065936 0.14413668 0.094677754 -0.28239974 -0.07337425 0.30103427 -0.047196977 -0.22060059 0.009839206 0.29963687 0.28042343 0.06832618 0.02849108 -0.24198382 0.26381907 0.15102021 0.14171506 0.05872817 -0.19538508 -0.14987549 0.021343281 -0.11837779 -0.019871615 0.19110006 0.18665354 0.17484722 -0.07633293 0.0584358 0.02604804 0.38116476 0.10811833 -0.0198261 -0.00092254503 0.072316125 0.08580374 0.03414871 -0.14948562 0.011434432 0.07975731 -0.10908012 0.25864905 -0.10608537 -0.14086287 0.22385187 0.09560988 0.0765721 -0.1295764 0.15207505 0.037209112 0.095453836 0.055367593 -0.0018341821 0.2568833 0.06297036 0.11251453 0.02790548 0.08697379 0.16587868 0.02077242 -0.14549433 0.041246276 -0.023130171 -0.16156083 0.12425735 -0.019864013 -0.23244034 -0.08191725 -0.19563884
は 0.13908239 -0.18899 -0.04368678 -0.06652175 0.29803026 -0.19949473 -0.048296098 -0.07557033 -0.19731697 0.0005320518 0.017683487 0.21628825 -0.24466084 -0.14440389 0.24349879 -0.019099025 0.00015893533 0.029315587 0.012047201 0.11831964 -0.21931882 0.12379819 -0.038122676 0.322051 -0.036285903 0.00048985856 -0.28276807 0.2190648 -0.15467408 -0.23558132 0.109690584 -0.029370531 0.18585083 0.1737764 -0.16070433 -0.26058334 0.0017615148 -0.019909114 -0.064005494 -0.24714279 -0.10644971 0.053323276 -0.2737981 -0.09671439 -0.13695416 0.1491209 -0.07922069 0.21633714 0.24401096 0.21916813 0.02228077 0.048541624 -0.06298257 0.10554162 -0.1694561 -0.05428294 -0.020567369 0.06866209 0.22347127 -0.071701854 -0.19549774 -0.00069571077 0.14807521 -0.16706945 -0.13554299 0.121156655 -0.030002002 0.08892288 -0.12577227 0.04377532 0.0125819575 0.07151943 -0.06504321 -0.2575983 -0.22173262 -0.24218565 0.022107974 0.118865356 0.10065981 -0.22276413 -0.4448724 0.09138192 0.100789145 -0.1399109 0.09058094 0.02987945 0.015641006 0.035295926 0.26637083 -0.24075793 0.387822 -0.3728263 -0.3286773 0.09507884 -0.3291322 -0.10140798 -0.0030320194 0.048660733 -0.041516807 -0.1320574 0.103202544 0.31564176 0.19518842 -0.083991975 0.07654971 -0.07329034 0.06894942 -0.13274978 0.12754656 0.0060385014 -0.14823496 -0.23199478 -0.12662438 -0.076513305 0.29907686 0.017379144 -0.14301772 -0.12306555 -0.1617308 0.17792982 0.07973374 -0.030825062 0.08770287 0.3080566 -0.28964767 -0.109864995 0.12511392 -0.046458386 -0.22649422 -0.19586356 0.27706036 -0.12594248 0.00613797 -0.21857737 -0.13012654 0.17627314 0.3550633 -0.14447203 0.24164867 0.36986473 0.21108568 -0.063766845 -0.32994175 -0.03305178 0.29263905 0.095072344 0.18832178 -0.074539684 -0.24345303 -0.16451459 -0.035889786 0.10554735 -0.03695272 -0.20976013 0.07934548 0.19761913 -0.287694 -0.18401024 0.12580559 -0.14706925 0.1862332 -0.09911914 -0.23220943 -0.32115793 -0.09646057 0.21256763 0.0012331762 -0.19182423 -0.15813534 -0.15388107 -0.059605103 -0.078815006 -0.15079215 0.20771395 -0.11915947 -0.09843 0.009995971 -0.02736239 -0.2286148 0.22806159 0.01919872 -0.02704983 -0.33440408 -0.012213171 0.3535879 0.08238995 0.3547943 0.1443093 -0.10356472 -0.27963012 0.014582278 0.047047846 0.047335636 -0.23221081 -0.26491028 -0.18661876 0.1903527 0.0047583743 0.069175065 -0.22447197 0.15870938 0.06824951 -0.055254668 0.21996148 0.052407376 0.009849332 0.0846001 -0.32200447 0.013336451 -0.121651925 0.08610616 0.13698709 0.026867671 -0.017085688 0.05510983 0.0138204815 -0.07022253 0.10503865 0.17530188 0.20787004 0.070554085 -0.06533455 -0.14947784 0.021204803 -0.03713558 0.0068099406 -0.10518943 0.25397623 0.14828345 -0.13999425 -0.23621656 0.06627624 -0.28309414 -0.069383405 0.26022053 -0.09152001 0.058322746 0.19542623 -0.092268944 -0.1691705 0.0024020982 0.2272479 0.19701003 0.04385292 0.00043411824 -0.24466507 0.26099598 0.17156796 -0.018788904 -0.023607083 -0.10950771 -0.026470253 0.063233696 0.08196089 -0.18889914 -0.09342503 0.18783247 0.18342556 -0.09807444 -0.04176739 0.106727 0.2980206 0.21979979 0.049176823 0.15186144 0.21012338 0.19468398 0.038827132 0.015290367 0.10517685 0.15040155 -0.18568805 0.052909814 -0.07861384 -0.16060364 0.2736281 0.091146715 0.042480446 -0.114392534 0.06926864 0.14648618 0.05026418 0.2271201 -0.056638453 0.26594335 -0.04440422 0.070847355 0.046114106 -0.0071900836 0.102587305 0.11148497 -0.1423366 -0.030942364 -0.11278836 -0.011308071 0.18648586 0.03001103 -0.18316892 -0.07529449 -0.205374
た 0.11809852 -0.15863724 -0.045228954 -0.004951011 0.27026173 -0.24374707 -0.035982978 -0.03406833 -0.2099133 -0.047554094 0.08604189 0.14941993 -0.16936576 -0.2012932 0.27858487 0.023451041 0.02272281 0.24348028 -0.12050422 0.012750296 -0.33497941 0.1119734 0.08679764 0.3053207 -0.012812703 -0.042517744 -0.3474554 0.28450796 -0.07902598 -0.31593907 -0.019713594 0.107538536 0.30607355 0.36684808 -0.26434326 -0.24424645 -0.0020034625 -0.018996783 -0.009675448 0.028603435 -0.085709885 -0.061410468 -0.20744203 -0.029015888 0.11460389 0.1759463 -0.046013474 0.20765159 0.16461353 0.025891533 0.045457844 -0.041652624 0.018721264 0.094267264 -0.24307072 -0.05472181 0.006781483 0.12593883 0.09230287 0.08096142 -0.34728923 0.04061706 0.04967962 -0.19631293 -0.12062212 0.17833266 0.035419237 0.087353945 -0.10988339 0.03283836 -0.059746705 0.17723964 -0.13370182 -0.16773248 -0.30787873 -0.2477062 0.040941536 0.16500863 0.24598677 -0.35473487 -0.5325345 0.11071832 0.1954124 -0.103877984 -0.013014553 0.052858006 0.13113526 0.057005674 0.24789375 -0.44103113 0.35099724 -0.31236142 -0.27434313 -0.036392905 -0.25731304 -0.048563607 0.0114376005 -0.18647698 0.013301648 0.10638707 -0.026991263 0.3742717 0.133201 -0.103270374 0.17260908 -0.10507591 0.01698589 -0.11376047 0.22003016 0.017442208 -0.053564128 -0.25660148 -0.14356503 -0.056245465 0.13041429 -0.12930892 -0.050133023 -0.2213051 -0.034917682 0.18812048 0.18002392 -0.03276075 0.01585824 0.257332 -0.40864092 -0.13960695 0.13935474 -0.09549615 -0.22596426 -0.25134203 0.1753182 -0.15461038 0.1274046 -0.23099768 -0.12687236 0.09914658 0.34223425 -0.22418295 0.1540378 0.47994632 0.22684261 -0.05540673 -0.2327272 -0.12163426 0.3540675 0.09529084 0.24153535 0.06712435 -0.31171665 -0.08775183 -0.07993761 0.019669538 -0.09075565 -0.15991047 0.2246653 0.27889493 -0.3510808 -0.1369682 0.21204372 -0.12835214 -0.040845685 -0.12382757 -0.2662675 -0.1790091 -0.15975787 0.28012824 0.06286569 -0.1362696 -0.056965362 -0.17668188 -0.08931044 -0.037490338 -0.10630015 0.21279657 -0.07943019 -0.06702944 0.049706835 -0.09828278 -0.17802857 0.14788729 0.081734225 -0.108966276 -0.34656927 -0.047273517 0.32209727 -0.019329302 0.32410726 0.08052312 -0.007025197 -0.3060301 0.122417435 0.16989163 -0.053958815 -0.12836348 -0.316048 -0.10076149 0.05732168 -0.0035361531 0.07088316 -0.13457206 0.24118295 0.07955877 -0.20923427 0.13873415 0.060761437 -0.12503906 0.07787898 -0.1864824 -0.060755603 -0.087087184 0.13726996 0.13612044 0.0576055 0.08334346 0.009633068 0.07969515 -0.013551453 -0.033451803 0.22357447 0.32196805 0.14193746 -0.069762595 -0.07593194 0.10016178 -0.08567332 0.048005402 -0.17546162 0.29659206 0.0020367038 -0.0055048694 -0.2568664 0.09269302 -0.16152662 0.14807186 0.2505928 -0.1490475 0.01588568 0.23428755 -0.028533237 -0.27421334 0.024448378 0.2288596 0.3938794 0.06880626 -0.08208811 -0.23323652 0.25181952 0.10516029 -0.03738181 -0.0023725366 -0.052540254 -0.10827316 -0.11093411 -0.10329116 -0.157056 -0.024908604 0.3070438 0.1606769 -0.10803484 -0.07085513 0.14828381 0.3787265 0.07145046 0.1395706 0.015318692 0.27817523 0.17128794 0.0024158477 -0.037077434 0.059380393 0.2279063 -0.25176695 0.10679501 -0.020568449 -0.12124295 0.20376992 0.005422346 0.0022223215 -0.14806347 0.054348275 0.13568042 0.018591061 0.057759758 -0.0534246 0.32848805 -0.01748215 0.15345603 0.0057117012 0.08468676 0.19017315 0.10524246 -0.16380236 0.025290225 -0.28357583 -0.2380578 0.007063808 -0.0018437369 -0.11428792 0.094114125 -0.20078336
が 0.13311969 -0.20070326 -0.06687291 -0.026843324 0.26177233 -0.26313907 -0.073794335 -0.0627061 -0.18828276 -0.037160546 -0.057886835 0.20117582 -0.21128945 -0.23709083 0.2713167 -0.13436438 0.02864651 0.099281974 0.063337 0.08062892 -0.26865 0.16720653 0.08511726 0.31971836 -0.024358237 -0.07756933 -0.250413 0.21377681 -0.18082929 -0.16301993 0.0037292806 0.08471349 0.23631753 0.23604831 -0.1123199 -0.27339196 -0.011216337 0.003845038 -0.025211003 -0.16634206 -0.078572355 0.032599334 -0.26117855 -0.112659864 -0.047004372 0.23732649 -0.10254169 0.13858208 0.28521344 0.071080744 0.05423494 0.017449249 -0.07018811 0.1175988 -0.15174882 -0.069735765 -0.060322743 0.12827331 -0.028661784 0.031965364 -0.20611013 0.08731311 0.03140681 -0.100676775 -0.2980216 0.13293229 -0.10228188 0.031051274 -0.0316814 0.12146638 0.07171048 0.19354229 -0.09305093 -0.1748807 -0.34270483 -0.15929562 -0.016216744 0.18182948 0.10439937 -0.23273538 -0.46304086 0.089982875 0.08703281 0.006812619 0.08165789 0.03843228 -0.009920312 -0.009004584 0.27727228 -0.3182184 0.39159188 -0.32899395 -0.16703711 0.07837152 -0.22047934 -0.031760298 0.061025262 -0.01438989 0.022011945 -0.063148424 -0.0008917936 0.3939205 0.2639484 -0.014266821 0.194568 -0.053097636 -0.0126814 -0.019694641 0.09224992 -0.014753728 -0.10157047 -0.26534295 -0.2022335 -0.03986599 0.24219106 -0.02568879 -0.037609007 -0.18690467 -0.2509809 0.16918218 0.0836749 -0.065141 0.14799513 0.43360734 -0.38530222 -0.13274895 0.1681262 -0.14896522 -0.2748959 -0.11954489 0.28633812 -0.06810795 0.0007319763 -0.112482965 -0.11503062 0.16754945 0.42329702 -0.105573125 0.15698546 0.37587547 0.23148516 -0.1807947 -0.30150452 0.033323698 0.26490304 0.091845535 0.2630097 -0.034848165 -0.23376086 -0.054543495 -0.0729632 0.060925037 -0.036098268 -0.19924799 0.10076538 0.3532776 -0.13777854 -0.04692078 0.2392382 -0.032853987 0.21023946 -0.022547852 -0.21787065 -0.24909672 -0.234717 0.3100733 -0.03911184 -0.1253135 -0.057804536 -0.08784995 -0.09477997 -0.037145093 -0.16253607 0.19209328 -0.15886849 -0.054213863 -0.07559309 -0.086097956 -0.12526834 0.15388967 -0.012692655 -0.017775044 -0.28021678 -0.11070287 0.30079308 0.10718835 0.36810082 0.09454956 -0.063325934 -0.2531084 0.0034570117 0.012644627 0.09186752 -0.14594056 -0.33022225 -0.22555807 0.023565711 0.03531845 -0.0024599992 -0.22532032 0.29943067 0.09090836 -0.15035334 0.25206035 0.07392065 -0.13242865 0.11528753 -0.23997335 -0.062478844 -0.1153821 0.13237764 0.020078493 -0.043773297 0.047848284 0.0856723 0.0007706087 -0.02079483 -0.0004563987 0.20548299 0.15959604 0.12354099 -0.12337652 -0.21292473 0.066147484 -0.009426976 0.07625127 -0.21164317 0.29338104 0.06704227 -0.17664108 -0.2235608 0.1155171 -0.18441531 0.10565171 0.28350207 -0.052542392 0.0048125642 0.23512746 -0.10763173 -0.16528897 -0.03938069 0.25262547 0.3174334 0.017068483 0.028640717 -0.1541916 0.12571618 0.119645305 -0.03796121 -0.0833232 -0.17466825 -0.09576558 0.03395155 -0.03456481 -0.100339785 -0.017659536 0.09150083 0.16861443 -0.035261385 -0.0866001 0.06407709 0.39883026 0.21872567 -0.056705397 0.172355 0.12486435 0.13913043 0.15626597 -0.031782642 0.016752264 0.20212178 -0.23120898 0.1407809 -0.050018605 -0.12428379 0.15550986 0.108322896 0.017307553 -0.19663776 0.09985803 0.10571998 0.1264199 0.20365378 9.7191776e-05 0.20501696 -0.032203 0.12799697 -0.058440097 0.05232908 0.10631745 0.12542745 -0.21431601 0.038727034 -0.07368264 0.010447331 0.109017715 0.03150638 -0.10601212 -0.012449817 -0.17385975
（ 0.16089566 -0.15966481 -0.14700763 -0.11706709 0.20712496 -0.11423632 -0.22638868 0.039901014 -0.05919426 -0.103374414 0.005273738 0.119275846 0.029349195 -0.17373626 0.18332687 0.20310491 -0.055079658 0.12509865 0.1957709 -0.38405997 -0.33468354 -0.14415342 0.26607713 0.30307874 -0.12186695 -0.2209649 -0.13073777 0.2534141 0.09720752 0.18767446 0.15986681 0.08779166 0.45929262 0.17505226 -0.20566985 -0.25249317 0.14042132 0.06428848 -0.15175492 -0.0672411 -0.023397066 0.096846424 -0.25939548 0.009668147 -0.24282151 0.1558534 -0.027307836 0.03467434 0.008009225 0.20267555 -0.03620458 -0.10490569 0.04867138 -0.049824163 0.009977064 -0.081644155 -0.05582826 -0.09043995 0.44158894 -0.12862086 -0.06749079 -0.17739418 -0.050485827 -0.0022589217 -0.28964442 0.011885927 0.11163065 0.20031886 0.09952386 0.17666811 -0.07327085 -0.11309614 -0.06345575 -0.09201157 -0.24456032 -0.19632423 -0.036832716 0.16975586 0.108092055 -0.048246827 -0.46332246 0.09958044 0.11518434 0.10736426 0.061673436 -0.003355592 -0.14043367 0.018164463 0.19745421 -0.17582755 0.54355735 -0.39899966 -0.22570094 0.08896578 -0.2567966 -0.20601097 -0.20150176 0.15390486 -0.19248113 -0.15262613 0.093039736 0.17834353 0.19499637 0.11051098 0.06970962 0.022375954 0.06596153 -0.12823659 0.07133699 0.120715365 0.162923 -0.21156901 -0.12314427 -0.18999916 0.2612117 0.09922014 0.04376154 0.06011787 -0.050059013 0.16797647 0.2244445 0.04764088 0.117965974 0.02988218 -0.25182152 0.057786517 0.028135825 -0.009894481 -0.09681593 -0.51151323 0.14881769 -0.2287332 0.1805769 -0.12646495 -0.04993148 0.054816585 0.20806548 -0.015137534 0.14867714 0.07192152 0.22450514 -0.18017296 -0.18987677 -0.067282476 0.049909677 -0.014329487 0.021529451 -0.048810653 -0.1538811 -0.19333485 0.055928346 0.020510543 0.00767388 -0.32214317 0.1787219 0.11147919 -0.08689357 -0.008256918 -0.092316434 -0.062074438 0.25200996 0.21007043 -0.07561307 -0.27930695 -0.069903836 0.09274945 0.10575915 -0.15003866 -0.08935428 -0.40414855 -0.06449198 -0.2839505 -0.12823771 0.36636522 -0.053673364 -0.11308406 0.35849184 0.18803534 -0.2585795 0.14213209 0.17318642 0.1667184 -0.3680855 0.12381468 0.18763411 0.22988509 0.15175597 0.12063675 0.008375753 -0.15393384 0.09465231 -0.04765538 -0.25746003 -0.07844187 -0.25732434 -0.24466139 0.4379762 -0.0812314 0.0057875584 -0.053384818 0.21959214 -0.2125326 0.21702485 -0.110634565 -0.10728059 0.10929197 -0.106313065 -0.14265534 0.061741173 -0.10447452 0.33390114 0.054927174 -0.015573237 0.30702537 -0.0155522935 -0.0044023544 0.0016131857 0.0010732348 0.23853533 0.0106699 0.14360943 -0.19404168 -0.15893485 0.1072552 0.10649903 -0.037813995 -0.20467703 0.24618751 0.26583448 -0.26604533 -0.22216667 -0.110557325 -0.06089728 -0.038911268 0.082697354 -0.30902243 -0.03670425 0.34949902 0.06436942 -0.11129598 -0.23335882 0.08441048 0.2108464 -0.26216984 -0.16236769 -0.13597971 0.18854725 0.08517743 0.02000657 -0.02864301 -0.011316287 -0.24625519 -0.16756323 -0.07567547 0.119567275 0.064978585 -0.12227056 -0.19612138 -0.05266043 0.05305059 0.012350309 0.46435964 0.10977902 -0.012698135 0.19270037 -0.03934431 0.06675301 -0.03504666 -0.17168453 -0.14209504 0.073897906 -0.018515825 0.1457682 -0.17230743 0.10726711 0.08302734 -0.036538336 -0.124768734 -0.23029134 -0.048019074 0.02631279 0.071207576 0.17301993 -0.05004757 0.35287786 -0.058989856 0.043429267 0.00815985 -0.03624816 -0.07185929 0.033525616 -0.03316794 0.13810505 -0.038051654 -0.08970568 0.1933771 -0.17291316 -0.13780813 -0.028813148 -0.07272503
） 0.1183923 -0.18724075 -0.19941323 -0.123447955 0.20193675 -0.14245887 -0.23575546 -0.010809255 -0.13321298 -0.11024582 0.019599725 0.18113364 0.06504308 -0.20423475 0.16963266 0.25153947 -0.07656504 0.053278904 0.13162555 -0.3978547 -0.32271922 -0.18665457 0.24693505 0.2682094 -0.08817738 -0.22843473 -0.10997822 0.28286505 0.05935224 0.16466358 0.124968596 0.10933353 0.43299472 0.14537728 -0.186101 -0.20776707 0.21576926 0.02124368 -0.15498115 -0.12967896 -0.019427238 0.10559944 -0.21092226 0.0019097704 -0.22949915 0.14483461 -0.09302239 0.11066189 0.006960179 0.15622026 -0.09772369 -0.0009003219 0.057079863 -0.09204071 -0.045252454 -0.044527527 -0.08426866 -0.08287253 0.39847988 -0.08089512 -0.062201817 -0.19915578 -0.10695866 0.059941713 -0.25759703 0.006012775 0.10095028 0.20613687 0.026390532 0.17081285 -0.09886023 -0.064021766 -0.06908166 -0.1448907 -0.24532889 -0.24601343 0.008513625 0.21020418 0.12856612 -0.016142959 -0.50361955 0.09001937 0.061977386 0.114152685 0.07959577 -0.016849646 -0.12702334 0.07940301 0.17174979 -0.19962378 0.4781717 -0.4033223 -0.24342631 0.041386142 -0.25554004 -0.14066021 -0.17712913 0.20648038 -0.21589337 -0.112136334 0.06664752 0.21495081 0.11567347 0.06169948 0.045615233 0.0016180897 0.0674638 -0.13876857 0.037623502 0.122910485 0.119592436 -0.18805663 -0.037576545 -0.23024058 0.2007767 0.076114066 -0.02562371 0.07005698 0.00028272875 0.15598984 0.17898732 0.036703143 0.13163646 0.0099200085 -0.26078245 0.07363593 0.06166975 -0.030711753 -0.10857869 -0.4865449 0.11693147 -0.21734689 0.13763374 -0.122192904 -0.03813184 0.048060536 0.25737622 -0.026635963 0.20035478 0.1156287 0.21169241 -0.17522527 -0.1748444 -0.061476197 0.00856515 -0.023613265 0.08366164 -0.04794929 -0.1192925 -0.2397197 0.039809186 -0.0423364 -0.004173152 -0.3642896 0.14921746 0.085424334 -0.0894265 -0.12086364 -0.11400417 -0.027478045 0.22948359 0.16680287 -0.061523 -0.2697038 -0.0048230086 0.1262301 0.06973271 -0.18591763 -0.05868177 -0.40270913 -0.11193522 -0.30149925 -0.07735488 0.29256034 -0.10050319 -0.10001169 0.3481877 0.23806769 -0.20928954 0.09886147 0.14275171 0.24234448 -0.3884991 0.12025953 0.23942119 0.19683918 0.16824505 0.08766899 -0.017786391 -0.20682739 0.07580812 -0.03804925 -0.19222352 -0.009044234 -0.2432439 -0.17999786 0.4540207 -0.083540834 0.049298245 0.004887717 0.25888214 -0.25678518 0.28584313 -0.0706598 -0.11187801 0.092584476 -0.10889626 -0.14179724 0.07196095 -0.11461566 0.36205482 0.031431653 -0.009281255 0.3671517 -0.09523385 -0.07974077 -0.03699841 0.06010079 0.23073564 -0.044466853 0.11609742 -0.22683606 -0.12945803 0.04277886 0.09220301 0.004016415 -0.1923296 0.19196996 0.3113558 -0.26777515 -0.17886907 -0.05608964 -0.03435792 0.011093237 0.08882612 -0.289413 -0.027516289 0.34528577 0.041659642 -0.10237109 -0.24327779 0.07796606 0.17277788 -0.22780073 -0.19119757 -0.12950961 0.2452703 0.04030029 0.03428085 -0.053350125 0.0409765 -0.2175942 -0.16119294 -0.06003951 0.11031679 0.12809885 -0.090735786 -0.13610637 -0.09489091 -0.0062279534 0.05807676 0.49180663 0.1183509 -0.0019157146 0.16425739 -0.024998879 0.13454492 -0.06649678 -0.166743 -0.10186235 0.07165411 0.021437885 0.12943846 -0.17185715 0.043535054 0.08846706 -0.03267141 -0.12847431 -0.24802653 -0.116255134 -0.0031136074 0.06559411 0.13656089 0.008719279 0.36277112 -0.042810865 0.027563356 0.0048969737 -0.013059194 -0.06902161 0.065069385 -0.03795729 0.13956296 -0.073004544 -0.082413025 0.14064205 -0.16791898 -0.14531921 0.062782705 -0.101328455
で 0.34779897 -0.14983168 -0.034864653 -0.14056794 0.3643137 -0.26057124 0.047810767 -0.05235196 -0.24945244 -0.040096518 -0.011632422 0.2741324 -0.23593007 -0.075107 0.24947573 -0.052389413 0.10935641 0.088583514 -0.024620216 0.049318388 -0.28616357 0.083394654 0.1980604 0.28454024 0.06292965 -0.035063468 -0.26528445 0.23271704 -0.066396855 -0.25804046 0.01353382 0.08827433 0.1549056 0.080286875 -0.14385468 -0.30045053 0.086181805 -0.024769004 -0.031347483 -0.22443736 -0.23093645 0.046195902 -0.1400858 0.035470776 -0.15076484 0.12569737 -0.017850375 0.20135888 0.20332578 0.032305308 -0.04907158 0.020501735 -0.01851313 0.092895366 -0.19141383 -0.017044947 0.084115244 0.051132206 0.14285474 0.08410784 -0.2141508 0.14482626 0.0327865 -0.1116263 -0.055051416 0.07397853 -0.12025224 -0.024557589 -0.01593808 0.10022949 0.13915741 0.09901366 -0.16424684 -0.091567546 -0.32750502 -0.15413705 -0.026021505 0.14034554 0.14164145 -0.25067532 -0.3857521 0.14402883 0.1051701 -0.07051552 -0.057752986 0.025151331 0.019079678 0.0038656734 0.14153819 -0.3643335 0.42910242 -0.35794014 -0.30350828 0.048045162 -0.28471965 -0.054677 -0.041410208 -0.05805905 -0.06797904 -0.009594483 0.07172438 0.38819838 0.07806973 -0.06954496 0.06796581 -0.19767033 -0.11733416 -0.07256515 0.09719304 0.06728547 -0.100131966 -0.18152155 -0.103317715 -0.18181537 0.18691514 0.0056657963 0.012257701 -0.19231842 -0.1500855 0.25054234 0.03699647 -0.008273341 0.092137605 0.29181284 -0.26699072 -0.14416543 0.08118313 -0.101499766 -0.29780376 -0.13905492 0.30209118 -0.08885449 0.08752226 -0.02486698 -0.1453927 0.24374592 0.3548537 -0.054818008 0.14449105 0.5073143 0.076175265 -0.010866083 -0.25274333 -0.034562584 0.33522362 0.120368555 0.10239571 -0.065137014 -0.20787308 -0.124068365 0.026588071 -0.010574679 -0.09030101 -0.23260652 0.2495401 0.2784594 -0.27235955 -0.19528008 0.23729071 -0.104125276 0.25539804 -0.22260931 -0.3324832 -0.19300857 -0.12805688 0.2716508 0.018146398 -0.19330741 -0.031215234 -0.12088772 -0.1420206 -0.021403706 -0.08589749 0.23309155 -0.0461712 -0.027266331 -0.046148613 0.0012396397 -0.2262253 0.14327642 -0.069360964 0.0098065585 -0.14374466 -0.1334333 0.36745116 0.099198826 0.35458612 0.16344242 -0.17262237 -0.34159917 0.009301667 0.08868183 0.004490983 -0.042772073 -0.2461437 -0.13865785 0.19738376 0.06571935 0.012814873 -0.056575943 0.18076499 0.23691432 -0.15280055 0.19299662 -0.0021038284 -0.008712434 0.00031326147 -0.33703792 -0.0005893627 0.028661417 0.0668374 0.13612899 -0.06088972 0.0550278 0.01703356 -0.00042351917 0.009223533 -0.028951967 0.21600327 0.2875542 0.12001877 -0.14324282 -0.030701743 0.03081118 -0.024300862 0.026420292 -0.22521725 0.32334283 0.08799529 -0.15279807 -0.25523245 -0.032210242 -0.24860922 0.069900446 0.25345325 -0.1399814 0.066206664 0.08540259 -0.0021208872 -0.24744548 0.053306997 0.23761564 0.21161124 -0.08046153 0.07768516 -0.17923072 0.19921254 0.21497418 -0.074961096 -0.06952065 -0.19736621 -0.07695352 0.031887498 -0.01884437 -0.028188927 -0.022818442 0.07798782 0.29431447 0.07128327 0.06155943 0.20304874 0.34817913 0.12586428 -0.072961226 -0.006350829 0.027692117 0.22209567 -0.07277522 -0.06497159 0.019073343 0.088451095 -0.1324213 0.16014832 -0.06951121 -0.11514848 0.38717395 0.11707545 0.0560027 -0.059727326 0.062691726 0.07569872 0.046978205 0.08912122 0.022904774 0.26433572 0.026245518 0.031626023 -0.07800607 0.04782839 0.16589455 0.11913656 -0.18844043 -0.0065891608 -0.09025683 0.004073529 0.086222835 0.084454276 -0.2421541 -0.075608954 -0.195565
と 0.08332294 -0.19057031 -0.10109501 -0.15314783 0.3223549 -0.24549699 -0.1631963 -0.08256581 -0.12867446 -0.13394195 0.0024172913 0.1213889 -0.22267741 -0.3530416 0.20928778 -0.08518441 0.19461244 0.03979144 0.06389036 0.09715335 -0.25816357 0.15646377 0.04114326 0.2010206 -0.07702169 0.007962984 -0.25133666 0.23747258 -0.18620993 -0.2403149 -0.060649473 0.010786232 0.35884926 0.21455991 -0.2909908 -0.22433847 0.04697743 0.03366374 0.025179395 -0.06285662 -0.21640359 0.19630265 -0.03667548 -0.105779715 -0.096744955 0.0040575447 -0.2180599 0.14586045 0.15196246 0.08518015 -0.08623705 -0.02109777 -0.109441616 0.13962583 -0.14118753 -0.22536297 0.043666527 -0.004600004 0.10176714 0.022512449 -0.3553987 0.008055818 0.08527124 -0.19835149 -0.16364202 0.046685427 -0.025156444 0.039005544 -0.18796308 0.13860674 0.10873325 0.12087489 -0.08964556 -0.14907269 -0.38600612 -0.31653616 0.08120169 0.032506727 0.31890917 -0.18717824 -0.45296714 0.21725981 0.09170027 0.050058607 0.059946097 0.037157007 0.021756839 -0.042067684 0.11753025 -0.29926983 0.46136278 -0.31427607 -0.24836889 -0.14329192 -0.3769235 -0.010142442 0.030316778 -0.07392083 -0.108319156 -0.122348 0.13180687 0.3027139 0.15582462 -0.036036786 0.12651095 -0.088927634 -0.067265436 0.03900138 0.07470143 0.012075636 -0.070703864 -0.14983033 -0.10121721 -0.03958679 0.25904846 -0.1253162 -0.059369836 -0.14420904 -0.172695 0.19524415 0.10060838 -0.09234993 0.09180441 0.541012 -0.36296213 -0.03936348 0.07905871 -0.05806384 -0.17835374 -0.33101225 0.27851704 0.024810553 0.024387091 -0.12069515 -0.042416845 0.287649 0.40706322 -0.17422242 0.11412642 0.44530666 0.15004496 -0.107289806 -0.3278152 -0.05507054 0.2855883 0.031316143 0.21596858 -0.004726314 -0.3020623 -0.023701819 -0.08670076 0.22077386 0.13190922 -0.3132845 0.10389616 0.25235182 -0.29384246 -0.173498 0.27734804 -0.21390954 0.11795761 -0.10632434 -0.19477543 -0.37606516 -0.18819131 0.09785229 -0.028097363 -0.12549017 -0.13343966 -0.13695307 0.033575203 -0.14135024 -0.058409818 0.091868766 0.044044446 -0.0757785 0.09057618 0.00075855263 -0.15542981 0.16811138 0.036167346 0.06389394 -0.30423483 -0.009260039 0.29251242 0.09764302 0.17587255 0.038397938 -0.09823209 -0.2860557 0.078602225 0.071774736 0.08128093 -0.11529781 -0.1951981 -0.108940184 0.19798043 0.086979136 -0.10952081 -0.21325698 0.16487108 -0.0041085496 -0.0917225 0.23499595 0.027370008 -0.10753727 0.029857002 -0.23934838 -0.16742396 -0.062191274 0.12950827 0.09533137 0.0025729535 0.015218503 0.05229313 -0.030752676 0.099517934 -0.06797792 0.37285456 0.20984489 0.10855399 -0.123697616 -0.055746354 0.10750609 -0.20398228 -0.068668656 -0.18572512 0.24316554 0.055199753 -0.062214904 -0.2344976 0.04383028 -0.20208639 0.00064209045 0.23531643 -0.14444318 0.027582686 0.23878191 0.07197247 -0.216525 -0.04601301 0.22184509 0.42809528 0.0395525 -0.0075661764 -0.1692266 0.1723576 0.3349542 0.11536512 -0.033728328 -0.122902 -0.018291043 0.18047121 0.037935913 0.0011550984 0.046727452 0.108755894 0.07951132 -0.04065876 -0.049770426 0.094217286 0.43328375 0.14309488 -0.036158226 0.046585135 0.13753587 0.20299889 0.16110668 -0.1576519 0.034666047 0.12942244 -0.17285123 0.16606818 -0.20840992 -0.080178246 0.22420058 0.014326273 -0.016705649 -0.114489965 0.0675673 -0.0014018519 -0.013894905 0.032034352 0.098540224 0.24923208 -0.20708098 0.022754628 0.10855709 -0.018804818 0.13548045 0.15502548 -0.23276578 -0.0731253 -0.074135326 -0.007526694 0.11279087 0.057117432 -0.21334721 -0.083126746 -0.1570215
て 0.025938302 -0.23708458 -0.16486797 -0.025032602 0.21916476 -0.31460625 -0.08403339 -0.11633986 -0.25494945 -0.07961634 -0.04327886 0.22098212 -0.21743673 -0.224435 0.19044654 -0.09089443 0.055265732 0.13488796 0.040213134 0.039267354 -0.2542956 0.12886338 -0.080617525 0.2295936 0.0039969585 -0.07809467 -0.2774734 0.24092668 -0.29823846 -0.43983808 0.03984852 0.086573884 0.38809824 0.30823287 -0.15411241 -0.21112424 0.16395295 -0.041070197 0.08538755 -0.14296117 -0.037671894 -0.14490007 -0.12782805 -0.18807034 0.0019216214 0.20353702 -0.16017896 0.21269405 0.21879345 0.17375347 0.008812843 0.058675524 -0.03193051 0.02519148 -0.23483668 -0.09860353 -0.07687843 0.009562013 0.17818238 0.006888569 -0.20406613 0.046119045 -0.18002003 -0.047727935 -0.061331395 0.17619528 0.010035546 -0.003389379 -0.21442194 -0.01220811 -0.109487936 0.10073176 -0.21996537 -0.2711718 -0.38785863 -0.19370908 -0.010948056 0.18351652 0.11918495 -0.31084436 -0.4376937 0.042958997 0.1156835 0.017345274 0.110540226 0.096766055 0.020476697 0.033464972 0.09352598 -0.3909315 0.3308436 -0.3864612 -0.23172219 -0.14427668 -0.47663426 -0.018802732 0.04907762 -0.08765324 0.009553504 0.1689126 0.12078316 0.45559487 0.13841976 -0.1279976 0.07117139 -0.120920524 -0.084441215 -0.018970732 0.15036924 -0.056725446 -0.10435648 -0.29722965 0.054362528 -0.022560444 0.035775658 -0.07450922 -0.066303074 -0.29626006 -0.12499113 0.16844235 0.08180504 -0.0490159 0.10674209 0.42101836 -0.4203081 -0.18322638 0.13628414 -0.076099 -0.35160133 -0.2183736 0.12719817 -0.10706248 0.032212436 -0.16585812 -0.023689546 0.2431961 0.33598337 -0.07629056 0.039743643 0.50363165 0.16964631 0.12751585 -0.21755311 -0.093873434 0.16360103 0.051247243 0.3453655 -0.089433454 -0.35238603 -0.08427245 0.029674754 0.052315462 0.08883744 -0.3078863 0.18604411 0.21737964 -0.22495535 -0.14448383 0.27212927 -0.1284269 0.04516872 0.02769229 -0.24824303 -0.16788556 -0.13257511 0.24006887 0.032618064 -0.18369657 -0.08381789 -0.113638364 -0.002810269 -0.008127258 -0.031010142 0.12799478 -0.2073743 -0.12947515 0.047396954 0.042932652 -0.115882136 0.09067143 -0.076411836 0.038447358 -0.29112366 0.051729526 0.26288494 0.017006006 0.40960523 -0.0067103 -0.13843493 -0.19211996 0.12667038 0.15665843 -0.03721761 -0.11685562 -0.34031773 -0.08309124 0.054054342 0.029607885 -0.115166314 -0.15445346 0.32280037 0.059925094 -0.18901826 0.26933947 0.002667895 -0.13572559 0.15470728 -0.22671653 -0.044824682 -0.104253374 0.06940235 0.102121584 -0.013735129 0.1469922 -0.007958729 0.0108004315 -0.04600804 0.05130867 0.23677312 0.1761717 0.0497508 -0.12505506 -0.046817917 0.055854652 -0.020367336 0.09185994 -0.1524391 0.1557404 0.111629836 -0.12227867 -0.15147243 0.15718082 -0.086970195 0.21469778 0.29171595 -0.12238439 0.1322278 0.33174863 -0.018565826 -0.13687989 0.0018568388 0.21580149 0.3877247 0.043821923 0.0453855 -0.36488333 0.40322322 0.1134897 -0.11800574 0.07502954 -0.014655123 -0.037371755 -0.043044295 -0.0023744737 -0.22880054 0.067216754 0.3357713 0.2758859 -0.19657528 0.008206257 0.17538434 0.4634904 0.16506 0.1042295 -0.022426756 0.29635677 0.19044496 0.0258441 0.009251553 0.1092165 0.15077399 -0.24176106 0.09467837 -0.074372075 -0.1300287 0.15365647 0.16476856 0.02546238 -0.13984312 0.07503741 0.017436655 0.040922463 -0.012666817 -0.017660968 0.25606567 -0.04920152 0.20169416 -0.020389002 0.18349862 0.21435338 0.06622165 -0.11707804 0.05309009 -0.15851583 -0.14877675 0.018527975 -0.15506999 -0.16619305 0.0019806654 -0.14103197
し 0.18849435 -0.21758032 -0.25163123 -0.13980815 0.29081917 -0.27165613 -0.18229291 0.111737564 -0.3076735 -0.0035329163 0.03392344 0.21743046 -0.15355009 -0.13892649 0.24035682 -0.13637957 0.061411124 0.015751041 -0.06905702 0.028618434 -0.39545926 0.13213901 0.04377502 0.19698317 -0.09713769 -0.029840149 -0.33968243 0.19601433 -0.055647273 -0.17508204 0.024892714 0.14244387 0.3071803 0.35739002 -0.36408305 -0.3252361 0.11065053 -0.14107572 -0.030119538 -0.11507619 -0.13291101 -0.008196004 -0.14022897 -0.13199343 0.001418037 0.11734734 -0.046808306 0.11350478 0.13355179 0.032048065 -0.008350608 -0.074325256 0.018142838 0.036996987 -0.22301589 0.029476495 0.039542686 0.15436225 0.14388527 0.026673146 -0.23287852 0.06556525 0.16058297 -0.18228364 -0.1621642 0.04613009 -0.03497251 0.05731115 -0.036188234 0.0525988 0.0596495 0.2476935 -0.13535175 -0.18020964 -0.5033738 -0.13526708 0.17629704 0.19236355 0.06651309 -0.27045646 -0.3068585 0.05301719 0.019022819 -0.20307401 0.021351561 0.035953872 0.0012165436 -0.045759097 0.029918326 -0.41528845 0.30723232 -0.31150877 -0.27044398 -0.015168577 -0.32547852 0.038147934 -0.037660286 -0.19641218 -0.16514003 -0.05304918 0.13189965 0.4698543 0.061411973 -0.021137105 0.092722066 -0.064898394 -0.09254389 -0.069337085 0.18781951 0.088061675 -0.12944548 -0.33267546 -0.009661987 -0.12329748 0.18407197 -0.1924278 -0.05979603 -0.20279609 -0.07699907 0.14612746 0.049232017 -0.0058759293 0.16343153 0.4559469 -0.40349203 -0.21058898 0.1783884 -0.2502266 -0.12632889 -0.27642268 0.15291502 -0.080671325 0.16971712 -0.17078424 -0.11530824 0.13552497 0.37364417 -0.23508748 0.113311 0.50933796 0.27353314 0.11354569 -0.3179904 -0.1234792 0.24811883 -0.013454783 0.29850954 0.0149207525 -0.21578777 -0.14196351 -0.050299928 0.10824459 0.06467541 -0.14417662 0.17040722 0.29304525 -0.16853788 0.009848625 0.13051279 0.019138837 0.10917229 0.073872544 -0.19011775 -0.2532684 -0.2748064 0.12755124 0.017663997 -0.09489821 -0.27047977 -0.18309236 0.005246911 -0.107055806 -0.05680715 0.13289477 -0.15382227 -0.047709815 0.012159257 -0.0444038 -0.17291322 0.24123423 0.10849455 -0.057359744 -0.23969564 -0.042388305 0.34930795 0.010107023 0.35925743 0.19812955 -0.16825318 -0.2606192 0.0015274207 0.06870884 -0.08742504 -0.14991847 -0.3731047 -0.18153113 0.12366554 -0.028199676 -0.09756603 -0.12862417 0.20112158 0.12729609 -0.22431098 0.24442697 0.070542745 -0.065198176 0.12404371 -0.24392116 -0.20615989 0.13248235 0.21028154 0.019573167 -0.092627384 -0.05837589 -0.19273289 0.050093416 0.012181423 0.10752645 0.13674313 0.24171735 0.12609185 -0.06536811 -0.05527001 0.05594566 -0.18121772 0.08245089 -0.20578201 0.11945658 0.087110244 -0.013353824 -0.29347256 0.163739 -0.20143136 0.16908759 0.20556498 -0.07433622 0.08163685 0.32147238 -0.11301203 -0.16933598 0.046593994 0.24614389 0.3565681 0.13742149 -0.08288072 -0.18870027 0.31702456 0.20425841 -0.008544073 0.057536084 -0.10138737 -0.117141955 0.091858834 0.06200876 -0.0010335136 0.06972391 0.32154417 0.12644063 0.010112129 0.0049743974 0.06208817 0.23032959 0.18162604 0.010927035 0.052230097 0.11672991 0.01849331 0.042217165 -0.042529915 0.119705535 0.0038144984 -0.082903035 0.14967543 -0.19618133 -0.21127984 0.20944229 0.17760475 -0.04793872 -0.08230591 0.124297045 0.056738812 0.09805044 0.102713935 -0.11515221 0.18922797 0.04462554 0.10530044 -0.007932817 0.13335969 0.22252654 0.05010246 -0.082637854 0.10410585 -0.1854913 -0.09273549 0.1192461 -0.0808296 -0.20627156 0.06106757 -0.21630353
- -0.048268773 -0.024130467 -0.09421499 0.040941335 0.08678813 0.09707342 -0.3496964 0.1760585 -0.23733439 -0.26546746 0.22000423 0.07496076 0.23331207 -0.22515659 0.2337685 -0.0012083651 -0.053136 0.0032838876 -0.03474227 0.0046403827 -0.43536153 -0.21355984 -0.11038089 0.088133596 -0.011158903 -0.12060586 -0.2933701 0.16380532 0.24717182 0.08081535 0.17030515 0.20924537 0.037090644 0.2001012 -0.034597494 -0.39948347 0.105873 -0.16901712 -0.07772335 -0.115280636 -0.093334824 0.00046751162 -0.32105926 0.11596727 -0.2338846 0.10169085 -0.15362233 0.08258815 0.02959906 0.015368157 0.11677399 0.05330067 -0.24750918 0.0075649624 0.20342623 -0.09691255 -0.017224902 -0.07322214 0.1882058 -0.2966619 0.074321926 -0.11799353 0.058049288 -0.13161665 -0.15043885 -0.053240668 0.09993744 0.048541963 -0.15882197 0.053615652 -0.091837004 -0.32090214 0.041798916 -0.030645644 -0.5856055 -0.3401038 0.008777579 -0.03478913 0.2631713 0.02822514 -0.45531952 0.28117406 0.15175346 0.31594437 -0.017512498 0.018044095 -0.2184144 0.08736278 0.046760693 -0.15699315 0.5360795 -0.4195708 -0.30287755 0.05187349 -0.30281237 -0.08722122 0.0630846 0.11378485 -0.0049031074 -0.06720839 0.17009939 0.2226378 0.043944795 -0.036801245 -0.19656055 0.06453568 0.047115855 -0.32170513 0.13702571 0.18909551 0.24881089 -0.14786716 -0.03178289 -0.0058118594 0.3221453 0.07363535 -0.037912574 0.16717954 -0.0701292 -0.07003456 0.07744551 0.0358096 0.13519438 0.2463401 -0.60710144 -0.0025649185 0.14815013 -0.14270712 0.10317196 -0.363326 0.22731633 -0.32105353 0.05866853 -0.14475048 -0.13412696 0.0678618 0.23732495 -0.025855163 0.320057 0.1425615 0.12054186 -0.15737155 -0.21398613 -0.050757598 -0.010681124 0.030923402 -0.16733126 -0.25017637 -0.20731632 -0.13783905 -0.17268527 -0.079367764 -0.014419968 -0.31054264 -0.060510155 0.104436755 -0.11508854 -0.13131927 -0.11043041 0.0093317265 0.32911015 0.12735344 -0.1098539 -0.26171228 0.084415115 0.14467925 0.114268064 0.17219792 -0.16572662 -0.10731661 -0.29124936 -0.28678742 -0.25042474 0.36420918 0.13526 0.07717913 0.20249414 0.06683606 -0.4095 0.26897871 -0.051381696 0.14553006 -0.27905485 0.10685054 0.04786068 0.33517784 0.008179161 0.17730519 0.06444575 -0.18520674 -0.23059128 0.12174471 -0.37198263 -0.20538847 -0.28222045 0.09109068 0.24785016 0.16586465 0.32634845 -0.04156765 0.049411576 -0.32621586 0.06579505 -0.102162234 -0.05235849 -0.0035810429 -0.3085249 -0.029082488 0.1735233 0.08390102 0.3055578 0.034921 -0.08773456 0.14043784 -0.24374847 -0.34687355 -0.25288853 -0.036799554 -0.13035001 -0.22739638 0.04641058 -0.1801026 -0.21244088 0.20892896 -0.20982246 -0.07340701 -0.15613039 0.19567776 0.21447873 -0.14621514 -0.015568282 0.0014340216 -0.2346098 0.14017151 0.21596362 -0.37066278 0.054149922 0.17149888 0.017833708 0.037687942 -0.25944582 0.32925862 0.0458045 -0.06552174 0.13542134 -0.24522531 0.11081883 -0.0043744687 -0.12196766 -0.12037537 0.28723487 -0.10543308 -0.13438962 0.11074741 0.17885526 0.052368846 -0.061612777 -0.07886547 -0.3580978 0.135388 -0.10751872 0.44969684 -0.016661348 -0.010968903 0.08630747 -0.17203577 -0.0011374482 -0.2101285 -0.1728841 0.21892552 0.13130338 -0.19627692 0.02105531 -0.3125055 0.19932425 0.06353244 -0.26517165 0.1937218 -0.09128846 0.12640074 -0.020570286 0.004644108 0.091137506 -0.12910157 0.25291386 0.045571737 0.02258621 -0.14589657 -0.07869112 0.059368536 0.10328759 0.022246597 -0.094616 -0.28846627 -0.11696621 0.22585733 -0.2966297 -0.13975173 0.15046754 -0.062567666
「 0.019410325 -0.15132886 -0.05085481 -0.24192363 0.24089232 -0.28251824 -0.018854415 0.005002793 -0.21702863 -0.039060954 0.19313273 0.42958373 -0.046719875 -0.07984106 0.3630581 0.062942855 0.10801886 0.18912111 0.12723473 0.19199459 -0.045063674 -0.018088607 0.23085852 0.09144903 0.10504426 -0.07937311 -0.24625982 0.24424636 -0.1791852 -0.043060716 0.12638426 -0.011132451 0.28354532 0.1364412 -0.22205442 -0.12128992 0.12655462 0.18860933 -0.11527389 -0.13761514 -0.43695647 -0.18301338 -0.12047802 -0.030571707 0.02874621 0.07439571 -0.13531259 0.36758167 -0.019653536 0.019458301 0.18317793 -0.07339787 -0.023316022 0.15533206 0.011731095 -0.06498832 0.20256978 -0.016988147 0.21341048 -0.13854198 -0.18132211 -0.17253506 0.035889585 -0.20472434 -0.11745472 0.043505594 -0.042643666 -0.043595605 0.21095358 0.112109 -0.018850224 0.11110536 -0.0020091678 0.0058653224 -0.15600103 -0.15992555 0.26362482 0.11951233 0.24048346 -0.20895784 -0.5564626 0.2505997 0.0870517 0.0505375 -0.045059234 -0.031645298 0.00010615368 -0.07554952 0.30216384 -0.37016386 0.3776017 -0.33434445 -0.23990229 0.05945633 -0.35514522 -0.0030403074 -0.006027605 0.24182078 -0.19917919 -0.12275981 -0.022493994 0.32841897 0.1598637 -0.12850524 0.15716724 -0.021648394 -0.056340702 -0.03920972 0.1821622 0.1782898 0.13410416 -0.18343046 0.12087867 -0.2433965 0.18553288 -0.13344519 0.085510336 -0.060200125 -0.2861418 0.24124111 -0.04279485 -0.019431226 0.0057740267 0.40421143 -0.3028851 -0.12004994 0.035201292 -0.11715181 -0.1457456 -0.25989923 0.24510287 -0.2639717 0.112043746 -0.040437706 0.035172343 0.23053719 0.26156726 -0.007219008 0.022660585 0.3167421 0.12090518 -0.2647933 -0.33888468 -0.23245671 0.18062304 -0.0036652386 0.07236635 -0.07369207 -0.11786799 -0.16529801 -0.05850591 0.016670732 -0.1713789 -0.19800508 0.150231 0.430511 -0.17250976 0.00654659 -0.005361806 0.081392154 0.18819349 -0.038517345 -0.29639608 -0.063258484 -0.15357943 0.19752453 -0.16746809 0.018717773 -0.19257721 -0.27352512 -0.020152992 -0.035678245 0.025372857 0.19539697 -0.02827938 0.046106547 0.13305777 -0.24179468 -0.08415852 0.13004325 0.054878082 0.0934522 -0.44474095 0.11649309 0.3572202 0.15454835 0.24763447 -0.04947769 -0.0370267 -0.2274022 0.11292432 0.012400008 -0.02344827 -0.33202046 -0.17498977 -0.22655952 0.095297545 -0.04008403 0.11038147 -0.18696666 0.19212314 -0.10987003 -0.0023282038 0.21167022 0.007288107 -0.09501682 0.105397925 -0.30870605 -0.10320834 -0.06446956 0.33236477 0.08952951 -0.10656929 0.24009909 0.01314617 0.027709903 -0.04240703 0.034222107 0.21798567 0.3496879 0.06325981 -0.010651258 -0.070221245 0.14655218 -0.01637713 -0.08129457 -0.19370203 0.025104912 0.17614444 0.017024534 -0.11819885 0.045884848 -0.10390066 0.09683099 0.16356458 -0.027461862 0.069378816 0.18191226 0.02934886 -0.21532959 -0.20730993 0.23238395 0.4408324 -0.18896118 0.06707759 -0.22825234 0.0634269 -0.04491255 0.06767673 -0.016206758 -0.09669027 0.17709953 0.009803636 -0.057442028 0.0003803997 0.012618593 0.0051922286 0.11118728 -0.13397981 0.102378555 0.11998443 0.435222 0.2705573 -0.015762875 0.088558614 0.21315052 0.20422426 0.03951926 -0.20145142 0.105591886 0.07603356 -0.10315619 0.14963572 -0.18149276 0.19575895 0.2372133 0.037270658 0.049002025 -0.08019339 0.1307284 -0.16986094 -0.0535386 0.01821927 -0.027164673 0.245654 -0.07045325 0.07951909 0.24647565 0.0254505 0.011859122 -0.19363587 -0.15179428 -0.20286016 -0.0073025655 0.01513882 0.24666992 -0.16663359 -0.0875516 -0.13790648 -0.21519227
」 0.19663316 -0.19134252 0.0018256995 -0.12783107 0.28391147 -0.3212403 -0.0842617 -0.09674133 -0.24260351 -0.027828738 0.23421955 0.39501035 -0.06896878 -0.120621465 0.37117544 0.09596857 0.12562993 0.11415074 0.13993624 0.1518391 -0.040858135 0.07638018 0.25758556 0.04714376 0.05386571 -0.046760313 -0.28953457 0.2745472 -0.21275167 -0.0582675 0.09635686 -0.0031890653 0.30606544 0.20241813 -0.25018933 -0.16800368 0.18163943 0.12723997 -0.09442118 -0.19166808 -0.4389749 -0.19306357 -0.13461548 -0.014746049 -0.022031212 0.1582081 -0.15962377 0.33147222 -0.09457919 0.0056273877 0.17374672 -0.005390547 -0.029072013 0.20803669 -0.004704892 -0.04648399 0.17284964 -0.04908745 0.2779362 -0.097041495 -0.16610065 -0.22439094 0.119893275 -0.13463953 -0.16593853 0.052946497 -0.088281654 -0.09887617 0.2614755 0.15587348 0.03498802 0.10708011 -0.0009458773 -0.03331888 -0.19877289 -0.09494837 0.36213264 0.19462998 0.21465202 -0.05588886 -0.62651265 0.31327617 0.019395083 0.03539855 -0.040886924 -0.0027199166 -0.025827263 -0.083363526 0.28878203 -0.3826441 0.37098476 -0.32918337 -0.19354144 0.1106819 -0.30272442 -0.04315963 -0.005834409 0.2378126 -0.14292097 -0.07883892 -0.07285243 0.39370447 0.21075234 -0.22205043 0.21165 -0.046294983 -0.053122472 -0.10085009 0.11826906 0.12571438 0.19636461 -0.07881007 0.12442684 -0.22183023 0.18170673 -0.18826595 -0.050293643 -0.052292906 -0.2521801 0.17746554 -0.11204806 -0.026209075 0.099442035 0.5158365 -0.28552487 -0.07600156 0.041730102 -0.16956216 -0.11386653 -0.31815237 0.118855104 -0.18935889 0.103098735 0.0012211392 0.04868554 0.23931104 0.3849882 -0.04294777 -0.048551567 0.27895617 0.045470554 -0.25461718 -0.28753936 -0.20680137 0.16676234 -0.022512741 0.18001343 -0.0021074126 -0.17765401 -0.15546733 -0.037631687 -0.0013624007 -0.12765841 -0.27194214 0.14737493 0.37601328 -0.16001296 -0.049717855 0.031991273 0.0109825535 0.09805311 -0.058797777 -0.2211673 -0.10110617 -0.17717241 0.12780271 -0.17867535 0.0031166074 -0.18012013 -0.2798564 0.017163934 -0.08835402 -0.014776958 0.21359846 -0.051895536 0.043923322 0.14181992 -0.1399255 -0.108755894 0.056470327 -0.013791564 0.21453951 -0.36807692 0.02434361 0.3400466 0.22334544 0.2850194 -0.06166173 -0.07837459 -0.16093683 0.14666277 0.13538146 0.06561788 -0.32831728 -0.1916562 -0.15557146 0.19302279 -0.032350194 0.14898738 -0.14496924 0.16640553 -0.08653397 0.06467789 0.2690739 -0.006905971 -0.014138214 0.1468273 -0.35511383 -0.05741302 -0.071475096 0.3227934 0.11742482 0.010634848 0.3048475 0.03403191 0.04891908 -0.06837264 -0.038246945 0.20413534 0.3059717 0.04690003 0.07777181 -0.055418845 0.138957 0.0023145133 -0.06466702 -0.14690697 0.045406856 0.30626482 0.043546613 -0.13184446 0.09620725 -0.14975168 0.13074902 0.16446768 -0.04550411 0.010694044 0.20846358 -0.055285297 -0.2056796 -0.18899336 0.09645463 0.42124233 -0.12752183 0.16305593 -0.24072357 0.027561896 -0.028522471 0.14174676 0.04176421 -0.06542424 0.073471285 0.0038567483 -0.013746752 -0.060208146 0.03954784 -0.04186624 0.18534374 -0.18102647 0.060817525 0.1221006 0.33922434 0.31618223 0.042442508 0.13359194 0.28396028 0.22046733 -0.043469496 -0.16100577 0.11867707 0.07662546 -0.07232346 0.16083612 -0.19334573 0.20233561 0.26236287 0.039238248 0.068338476 -0.09072817 0.113265805 -0.16748022 -0.027724553 0.031947978 0.028346058 0.19775024 -0.059319347 0.06916355 0.20789838 0.0686298 -0.049826387 -0.13701652 -0.24450876 -0.12954177 -0.00022520658 0.06892344 0.15723942 -0.16748199 -0.04686601 -0.07122871 -0.20256816
・ 0.17840484 0.015590473 -0.30281773 -0.25306305 0.12933719 -0.3250772 -0.20666948 -0.13820906 0.026062313 -0.24985957 0.055165958 0.24405196 -0.16242324 -0.15084964 0.24590713 0.136264 -0.14694701 -0.08469206 0.13881634 -0.1694279 -0.25855142 -0.13427958 0.10129517 0.017834648 0.13099167 -0.12670834 -0.17964976 0.1871307 0.06999188 0.080823876 0.05233712 -0.039523415 0.29661146 0.004546756 -0.21266256 -0.09055552 0.08881636 0.13038208 0.043888323 -0.5665674 -0.13565643 0.04060322 -0.1192312 -0.121746495 -0.17476879 0.10841939 -0.024514522 -0.14031275 0.097312495 0.09867626 -0.15083046 0.08413168 0.051144835 0.12295815 0.033607155 -0.15025227 0.093523055 0.074991055 0.31787226 -0.2120167 -0.14450969 -0.12683147 0.036672033 -0.101924315 -0.141003 -0.031409334 0.11187808 0.048264857 -0.0054660467 0.25707632 0.15808266 -0.15450126 -0.29307526 -0.009106024 -0.48417944 -0.033434886 0.12461273 0.16554336 0.2636666 0.047964953 -0.5783401 0.0754532 0.21049614 0.008746741 -0.032298304 -0.09646523 -0.14146467 0.2196428 0.24604224 -0.34696877 0.41196114 -0.23648074 -0.28212377 -0.029145943 -0.34715036 -0.18996334 -0.010825365 0.0464153 -0.33088064 0.070394166 0.0656323 0.07131351 0.26455405 -0.043163307 0.20685165 0.25820225 0.12830862 -0.12297962 0.034093197 0.22256133 0.059910238 -0.25307813 -0.082886145 -0.2647073 0.1549588 0.022230301 -0.011253969 -0.010319547 -0.15351474 0.35021168 0.24533747 0.07055925 0.0073008346 0.21195374 -0.32049596 -0.135106 0.11065583 -0.1389067 0.010256056 -0.45033258 0.14811599 -0.050158318 0.14174177 -0.19821633 -0.094137006 0.15120918 0.27345344 -0.08905529 0.16272123 0.2696161 0.20140184 0.07557439 -0.48030394 -0.21427912 0.20539945 0.05921951 0.24684843 0.17778498 0.010673864 -0.14866717 -0.0030715144 0.06834898 -0.112668075 -0.39746255 0.11735715 0.20847048 -0.2310593 -0.13204893 -0.09937481 -0.06373918 0.3815233 0.20828174 -0.048697647 -0.3727888 0.0059447396 0.13119979 0.0046912534 -0.22135219 -0.1496661 -0.16606238 -0.09748994 -0.07646862 -0.036960226 0.28643298 0.16093148 0.04290234 -0.025683898 0.049715832 -0.200701 0.19025803 0.2639841 0.054196216 -0.31742898 -0.029209504 0.15917914 0.17400837 0.32382524 0.10348183 0.07118329 -0.21794835 -0.10855395 -0.07922402 -0.12496528 -0.17392746 -0.3256113 -0.103434965 0.22193061 0.016911972 0.01567694 -0.05582121 0.1675129 -0.22966146 0.05103289 0.06110249 -0.12067805 -0.13182631 -0.13712135 -0.1354047 0.17668071 -0.13853629 0.24445006 0.103630744 -0.12937121 0.28070465 -0.15011972 -0.17467456 -0.15419953 0.045012735 0.2960822 0.0849866 0.0018026467 -0.20959288 -0.10185123 0.11741878 -0.15890805 -0.10250515 -0.15168071 0.31201738 0.30507457 0.014968097 -0.16550854 -0.19098797 -0.15580681 0.18263511 0.109279856 -0.18266366 -0.18628128 0.3221543 -0.01720506 -0.08858182 -0.14062525 0.1078005 0.036510065 0.0043341485 -0.17885098 -0.015752805 0.1888302 0.051859885 0.073588826 -0.025182998 -0.11837604 0.20997593 -0.0697347 0.08663995 -0.06650264 0.0792624 -0.038789224 -0.024200842 -0.119903386 -0.04108953 0.045603037 0.26196912 0.037365727 0.1569146 0.029999534 -0.028513616 0.026846627 -0.022654422 -0.20564914 -0.1109813 0.0498462 -0.14269099 0.095691845 0.11782436 0.08726663 -0.029049633 0.27345133 -0.25047168 -0.29673147 0.03811035 -0.08439411 -0.30596435 0.24787821 0.08615565 0.07234373 -0.097414166 -0.006749335 0.0427326 0.025253542 0.022356521 0.09169196 -0.011012098 0.050344523 -0.052764587 -0.12870482 0.26371056 -0.1647487 -0.28354907 0.027143676 -0.23374097
 0.33784145 0.0030293548 0.20112157 -0.1522931 -0.15891509 -0.08020123 -0.120948404 -0.10475455 -0.35335717 -0.016316243 0.47240704 0.071801215 -0.31153953 0.14959276 0.21810079 0.19993998 0.18521617 -0.009841869 0.06340712 -0.03944846 -0.23243576 -0.19497465 -0.065499306 0.019391323 -0.19721647 -0.077737905 -0.31146 0.29849395 0.12599617 0.23917243 -0.18439971 0.093973935 -0.35490733 0.20555319 -0.14633314 -0.23237687 0.2105413 0.008439955 0.132581 -0.10932167 -0.20664614 0.17707044 -0.14941406 0.042056564 -0.18450427 0.11951046 -0.08727973 0.10123167 0.056521863 -0.029779542 0.296096 0.27019253 0.021674313 -0.15298238 0.25353333 0.06392772 -0.264746 -0.0103319315 0.09100485 -0.03747326 -0.19543108 -0.3253761 -0.088697895 -0.023534939 -0.4086175 0.105380654 0.25843185 0.19423309 0.018533602 0.5341964 -0.24401097 -0.5268795 0.12384798 -0.25461242 -0.34280428 -0.34412354 -0.17307799 0.12683958 -0.21228693 -0.14187711 -0.33426902 0.05050803 0.0050122645 0.26046556 0.2735546 -0.0075308103 -0.034340274 -0.13718756 0.0016145095 -0.13486382 0.46754402 -0.582931 -0.37340048 0.1304294 -0.1545015 0.05755956 -0.018952722 0.0029782453 0.15775985 -0.49855426 0.01374223 0.40577745 0.0524545 0.052035164 -0.21897344 -0.16794129 0.0985278 -0.30226934 -0.19693352 0.053553477 0.112386644 0.064714655 0.14283642 -0.362263 -0.035355326 -0.12531836 0.33751515 -0.07063373 -0.5187464 -0.08019329 0.05448632 -0.042870972 0.31545177 -0.012199639 -0.3497399 -0.005654426 -0.1662351 0.026152622 0.3699201 -0.32005942 -0.12380557 -0.07108495 -0.19661243 0.1934185 -0.15003152 -0.0146325575 -0.034217652 0.005672903 0.1084642 0.22342019 -0.048668075 0.14821282 -0.46699914 0.020985924 0.15939437 -0.29791054 0.17501459 0.00908645 -0.1626498 -0.1618103 0.0054383664 -0.004258826 -0.21668509 -0.38865042 0.21882756 0.0721745 -0.26586065 0.2690446 -0.055602673 -0.015757188 0.615274 -0.14829913 -0.03934919 -0.21225744 -0.11981022 0.21159667 0.08995375 0.26475725 -0.3972324 -0.53716713 0.13958102 -0.20912844 0.14204155 0.35129997 -0.038256638 0.27254674 0.031648986 -0.14003055 -0.4312441 0.16610433 -0.06146442 0.04554639 -0.2446344 0.08651491 0.2541262 0.22632182 0.03386765 0.008639473 0.109628834 -0.16207528 -0.040419 -0.038363542 -0.24217017 -0.1133503 -0.045557722 -0.1351045 0.16228655 -0.2155511 0.3185039 -0.27990994 0.069002256 -0.2957871 0.31971562 0.39678577 -0.25467443 -0.26991394 -0.093599334 -0.40868303 -0.019850418 -0.0062707276 0.34896573 0.118950896 0.09859125 0.20813344 -0.36088252 -0.33822528 -0.14252861 -0.24493186 0.00088177144 0.18076792 0.10725042 -0.095867 0.16550452 0.07394975 -0.08074215 -0.09551652 -0.22588645 -0.011995998 -0.21795471 0.036750358 -0.34793758 -0.26049086 0.0917195 -0.11176469 0.123110585 -0.47227398 0.31986886 0.37874818 0.010482579 -0.04637957 -0.25729135 0.1767991 -0.0066864346 -0.19436066 0.16422838 -0.37694624 -0.10653886 0.12997463 -0.22830889 -0.3747856 0.10577568 0.09137808 -0.14625072 0.3131311 -0.122144684 0.40964198 0.24375825 0.07948602 -0.25758126 0.026888568 0.08470642 0.3026164 -0.106593646 0.18719567 -0.159484 -0.13563734 0.20867254 0.07699667 -0.021008251 0.24253425 0.19863518 -0.024650225 0.19161612 0.046174232 0.31314147 0.44012555 -0.012222205 -0.15213935 -0.16155197 0.2806413 -0.1826883 0.14730309 0.49013132 -0.200947 0.06286328 -0.1572279 -0.2976296 -0.01641118 -0.16915824 0.42498112 -0.22598979 -0.15318929 -0.2567732 -0.27169484 0.16511263 -0.18075402 -0.2208208 -0.2431489 -0.0673114 -0.37194306
れ 0.10113435 -0.12539297 -0.2571182 -0.044847507 0.1533781 -0.25160825 -0.013336546 -0.16000997 -0.19817598 -0.17192581 0.13952306 0.43085322 -0.09309314 -0.13275556 0.18684015 0.017295808 -0.23229608 0.15201046 0.050098836 0.101514384 -0.1390577 0.14842226 0.060861494 0.17292435 -0.19420227 -0.044925842 -0.23286766 0.23527753 -0.06203863 -0.427115 -0.062477108 -0.026973056 0.054560784 0.24573414 -0.33996612 -0.3063544 -0.04005476 -0.072615355 -0.121203214 -0.24472712 -0.14292288 0.025266731 -0.22243276 -0.1603145 0.13959126 0.13355905 0.20114526 0.09604927 0.093572326 0.2050974 0.09684035 -0.021556761 0.024213957 0.08316336 -0.23768498 -0.0063332953 -0.013515178 0.09132316 0.15337522 -0.037325665 -0.14118336 0.032214165 0.11791647 -0.23353371 -0.084290065 -0.01369261 0.08993602 -0.12883611 -0.016443959 0.047962826 -0.15947513 0.11397868 -0.13295734 -0.24314229 -0.32917452 0.059440803 0.12152893 0.2591885 0.14487855 -0.20122494 -0.44194716 0.016871167 0.014017449 -0.048659112 0.061136726 -0.10171407 0.15163724 0.15568662 0.34409812 -0.30165416 0.40089595 -0.3117153 -0.22836006 -0.14998817 -0.42993155 0.012908008 0.0662043 0.0062112673 -0.13700043 0.1344946 0.009677198 0.5018638 0.12317609 -0.073558554 0.029459666 -0.0124002965 -0.15504564 0.064047374 0.21314655 -0.048936296 0.086484715 -0.31839037 -0.057454973 -0.22710915 -0.04528472 -0.13785133 -0.016488949 0.030316474 -0.28219497 -0.023927728 0.1034061 -0.12698755 0.23774892 0.4706194 -0.29132548 -0.16037737 0.214742 -0.13685305 -0.3093693 -0.172924 0.23029362 -0.15857291 0.058101 -0.3112077 -0.16365562 0.16648893 0.3380029 -0.13141687 0.19005652 0.49212188 0.29326546 -0.0473186 -0.24931462 -0.07307449 0.297498 0.027948089 0.18676087 0.06110491 -0.18358348 -0.13047557 -0.18021497 0.12495773 0.02694445 -0.31800833 0.1629599 0.10680327 -0.2900628 -0.03739233 0.3271723 -0.13477288 0.19121653 -0.20487873 -0.141176 -0.14748538 -0.17101973 0.08267607 0.026118413 0.04046722 -0.11320139 -0.31998277 -0.03454246 -0.1097803 -0.23117013 0.21120766 -0.3691435 -0.18411587 -0.034234412 -0.0074290717 -0.18260422 0.34841624 -0.022281412 0.011996168 -0.2894332 0.008574095 0.16525996 0.17678477 0.28145036 -0.026781682 0.026294906 0.020032207 0.04874834 0.12641154 -0.073403955 0.057299588 -0.3286713 -0.16860618 0.23176503 -0.14991108 0.114250235 -0.0062191747 0.35992151 0.02378254 -0.29910415 0.16315852 0.10653003 -0.14041337 -0.015130719 -0.21460529 -0.33527985 -0.047818113 0.1857001 0.15620504 -0.08199546 0.090211526 0.039767686 -0.021715336 0.0004544992 -0.046759948 0.2789812 0.1295354 0.38002795 0.10727553 0.027157998 -0.06626461 -0.027869781 0.049962968 -0.17448205 0.14432232 0.39363462 -0.214877 -0.48044756 0.07620616 -0.1818236 0.1471994 0.24284445 -0.043180108 0.27443776 0.2605318 0.013592071 -0.14562817 0.08284849 0.098148085 0.4070341 0.013016687 0.02733373 -0.1804233 0.14571717 0.25992575 -0.1809956 -0.057014484 -0.059584185 -0.062827766 0.13033131 -0.22110243 0.05495678 0.014708518 0.27100033 0.13613151 0.007964728 -0.03154695 0.11522683 0.24549605 0.20000236 0.033602405 -0.13870347 0.13796951 0.12981005 0.013071904 -0.076278895 0.041304167 0.22120453 -0.3269555 0.07098937 -0.014986067 -0.16078554 0.12036041 0.14512545 -0.04500437 -0.15490858 0.12380751 0.3893999 0.059015814 0.11736093 -0.09883276 0.27557307 0.14522794 0.11158838 -0.059570864 -0.017348086 0.012565841 -0.0018774673 -0.1911243 0.034429554 -0.21983795 -0.008523426 0.16600367 -0.06538919 -0.05644789 0.11465126 -0.22344093
さ -0.015043188 0.04950443 -0.16791384 0.021728327 0.32358074 -0.24134658 -0.021396862 -0.19395529 -0.20522273 -0.10263312 0.19458583 0.3669464 -0.05054257 -0.19832899 0.23038152 -0.15321591 -0.28286517 0.055772167 -0.13418216 0.049972508 -0.2639834 0.1846627 0.021028714 0.2206094 -0.0566601 -0.035385054 -0.1500968 0.29652858 0.077430956 -0.4247096 0.07146333 -0.1598154 0.19898787 0.18737333 -0.18671624 -0.2959058 -0.17348488 -0.06790081 -0.09996904 -0.2185319 -0.08547641 -0.030180713 -0.25396806 0.09950153 0.033813536 0.17254685 -0.010351159 0.032542266 0.01651968 0.14112663 0.097004235 -0.049396783 0.08478882 0.17227767 -0.15017031 0.098883145 0.06650572 0.094546326 -0.033418037 0.033539057 -0.22117876 -0.010338191 0.14763771 -0.14512062 -0.12829898 0.11821396 0.08067384 -0.05359778 0.12952396 0.042438067 0.0071663666 0.14802743 -0.1355343 -0.335904 -0.27667335 0.10292883 0.0083771795 0.11900427 0.190806 -0.38259307 -0.39187914 -0.022271771 -0.026052637 -0.03694421 0.13727286 -0.013043342 0.14372845 0.03805533 0.16281626 -0.14278404 0.4992133 -0.27069834 -0.13924807 0.02390733 -0.44350404 0.09765981 -0.05379734 -0.053140268 -0.22100969 0.06135889 0.10605271 0.69523764 0.12118549 -0.24878262 0.1525632 0.10250634 -0.16055197 -0.07349692 0.2785292 0.1357591 0.029336434 -0.28599712 0.06437353 -0.21725094 -0.054911606 -0.09617858 -0.09836154 -0.16044094 -0.2692392 0.042384207 0.062275723 -0.0936154 0.19616419 0.32893366 -0.34295303 -0.060994007 0.013680359 -0.061663546 -0.24255608 -0.11607937 0.044483617 -0.09096638 0.21633884 -0.23819639 -0.028061526 0.2106471 0.31469995 -0.36395228 0.18184051 0.51644 0.28136653 -0.038237184 -0.35791016 -0.03129824 0.1465616 -0.020013142 0.21290566 0.014831466 -0.12606189 -0.10523601 0.0334239 0.176016 -0.015142455 -0.18122251 0.09127308 0.2783609 -0.12315558 -0.14122303 0.15563656 -0.030211268 0.101905406 -0.06730272 -0.09539346 -0.27255931 -0.18818079 0.2342763 0.099647105 0.095099725 -0.192596 -0.3895617 0.039819974 -0.13176073 -0.22668462 0.23749006 -0.15511335 -0.11651464 -0.056432806 -0.057595067 -0.19422829 0.16652344 0.019106006 -0.07226644 -0.4175447 0.032653425 0.22846657 0.0024735061 0.30847722 0.032888096 -0.20709492 -0.13182235 -0.12389362 0.08015968 0.035495035 -0.05073556 -0.2711706 -0.2226575 0.10138233 0.028318271 -0.11198618 -0.14097437 0.4243677 0.0040523633 -0.20587365 0.19245252 0.008673948 0.0012267791 -0.09936429 -0.33671921 -0.2110619 0.09595946 0.36090186 0.034486484 -0.06356489 -0.09660249 -0.12938431 -0.011994312 -0.006052065 -0.05259569 0.11672854 0.19922133 0.34933117 0.018051289 -0.010699498 -0.013352867 0.08564055 0.046417143 -0.22518604 0.12076183 0.37316725 -0.109339066 -0.52116114 0.028841097 -0.21147193 0.04790827 0.3160451 -0.03488414 0.2252034 0.20028706 -0.11545135 -0.031872574 -0.07566018 0.13792703 0.3320908 0.13863145 -0.0932387 -0.14529322 0.17869374 0.3382508 -0.06783337 -0.08972563 -0.08782369 -0.019857286 0.1248594 -0.06880564 0.09764773 0.10154265 0.28115308 0.09911586 -0.095585674 0.21050099 0.0020129408 0.2735709 0.21715222 0.05861419 0.039121136 0.08017334 0.09098198 0.036575146 -0.053956416 0.16639419 0.17118475 -0.08568055 0.14958367 0.01591016 -0.15360911 0.16410793 0.024029395 -0.026867736 -0.1266814 0.0022850006 0.2006875 0.020636467 0.18451017 -0.0769201 0.4310965 0.027403058 0.27466127 -0.13424756 -0.035423893 0.06956443 0.054436956 -0.26258695 -0.008914963 -0.1555909 -0.08695305 0.14788933 -0.09479186 0.053282786 0.085726246 -0.17937045
^ 0.25923052 0.12076269 0.18440403 -0.18128006 0.07881751 -0.33522865 0.0019032353 -0.04332293 -0.10575021 -0.05958492 0.5434698 0.09194008 -0.3326255 -0.17451751 0.29833078 0.2525821 -0.08602432 0.011704718 0.0052145035 -0.21140079 -0.3917275 -0.17511824 -0.024229303 -0.02894961 -0.12516455 -0.093219794 -0.22774561 0.34133208 0.24434619 0.13807414 -0.08011956 -0.18951896 0.06715513 0.23202103 -0.17224677 -0.20852174 0.0492903 0.13388337 -0.072140954 -0.09382226 -0.10323694 0.16889317 -0.2864693 -0.09870957 -0.12407946 0.1561661 0.07271882 -0.020583654 0.10554496 -0.09744105 0.25819033 0.0351307 -0.14217481 -0.14779592 0.22975326 -0.002269381 -0.034233794 -0.026014272 0.15012158 -0.20011456 -0.29201716 0.051999696 0.08277706 -0.03566738 -0.072197974 0.2527255 0.18430561 0.116618805 0.15194613 0.41607377 -0.22975627 -0.15853389 0.18909402 -0.3292038 -0.12775798 -0.09057111 0.18107197 0.11708754 -0.11914479 0.06390022 -0.3706537 0.087165 0.14620936 0.19830908 -0.0726642 -0.25139907 -0.15443513 -0.11237909 -0.09536483 -0.4053731 0.48895591 -0.5278553 -0.17650056 0.0841862 -0.4217726 0.032703683 0.09838549 0.09065196 -0.04883006 -0.39727554 -0.098682284 0.36292726 0.0024556215 0.09414433 -0.016172247 -0.004457969 -0.20059809 -0.19112132 -0.0042097936 -0.090229616 -0.058447998 -0.08623471 0.11336835 0.012857677 0.23309764 -0.06423432 0.21706428 -0.08776183 -0.41766945 0.11670515 0.061989658 -0.05958645 0.050687846 0.30130866 -0.53037906 -0.24577627 -0.23101932 -0.0051727467 0.11839037 -0.19652812 0.12300112 -0.3018597 -0.2416408 0.076015726 -0.29037613 0.13079128 0.18256669 0.081362076 0.12009922 0.2336648 -0.06359483 -0.3724886 -0.28074858 -0.11641833 0.059719365 -0.35795704 0.14356276 -0.0598238 -0.18386634 -0.10338616 0.021965593 0.010543113 -0.2265706 -0.31132916 0.12761424 0.18717796 -0.20752122 0.3456071 0.057597905 -0.042854685 0.5329132 -0.05698217 -0.20831855 -0.2159853 -0.16867134 0.28212658 0.10702837 0.28636232 -0.2991307 -0.37529948 0.29510498 -0.16444698 -0.06130176 0.3420656 -0.077597134 0.06446815 0.08150856 -0.1403409 -0.3035997 0.24335393 -0.023197437 0.15825593 -0.35599408 0.2661453 0.23531401 0.38977918 0.45162806 -0.018589783 -0.06694877 -0.29472855 -0.2633048 0.05747972 -0.0695008 -0.34577212 -0.27068973 -0.25891197 0.16779794 0.12290508 0.37245432 -0.19570678 -0.095029816 0.01310049 0.064055234 0.22333646 -0.3187962 -0.17689228 -0.10998228 -0.10470667 0.05723508 -0.19589083 0.15313299 0.06589775 0.030960321 0.24914981 -0.123683795 -0.027113747 0.107327394 0.058735993 0.009595746 0.12252702 0.12617815 -0.07175764 0.16723001 0.1450514 -0.16420692 -0.15219654 -0.35448125 0.15886535 -0.046743885 0.02477709 -0.25382578 -0.23848177 0.0047248383 0.015398763 0.05557463 -0.4166383 0.3549233 0.24700429 0.063388176 -0.24001616 -0.26360938 0.27480888 0.50180864 -0.01862219 -0.021113846 -0.13390425 0.063625686 0.24864326 -0.16750234 -0.30598086 0.21090896 -0.02823712 -0.22033605 0.13345778 -0.09608081 0.34325132 -0.09040915 0.051030785 -0.2642477 0.02347426 0.09488063 0.24815883 0.18476367 0.030190649 -0.058492884 -0.051132783 0.2189615 0.17181349 -0.024353918 0.1120343 0.32154185 0.048414096 0.16343705 -0.10686739 0.109119095 0.2644997 -0.058168113 -0.10327674 -0.13345261 0.14789681 -0.10112536 0.056028925 0.36967257 -0.06401338 0.18132038 -0.23308676 -0.29692572 0.054270674 -0.08841433 -0.066988304 -0.011433161 -0.24074237 0.036312427 -0.14205717 0.118080884 -0.15919444 -0.18080282 -0.32115936 -0.24898934 -0.27265072
いる 0.23342241 -0.18644735 -0.021205707 0.053797238 0.34512842 -0.41596997 -0.09830807 -0.16560337 -0.100935556 -0.14446294 0.023287956 0.28964776 -0.22011328 -0.0009859381 0.16591534 0.0013348978 0.24533537 0.20906322 -0.008789884 0.107174575 -0.1601595 -0.03844292 0.0020769879 0.37299508 0.034449898 -0.07277219 -0.24951012 0.28593615 -0.040006056 -0.28154007 0.16696453 -0.06116382 0.3553259 0.2562066 -0.2095265 -0.046931792 -0.10178282 -0.06396889 0.037695967 -0.02244997 -0.07290743 -0.033067714 -0.10839897 0.06373692 -0.15012208 0.041146163 -0.14025491 0.20200172 0.13182083 0.1654137 0.036283016 0.07685166 -0.053649962 -0.15042622 -0.16088136 -0.03851262 0.14984085 0.072775856 0.11457201 -0.12906227 -0.052490227 0.13242778 0.052281804 -0.015709374 -0.16849716 0.024801604 0.07232305 -0.06257328 -0.10385488 0.037685223 -0.0923901 -0.05262966 -0.21976973 -0.21224426 -0.36691847 -0.07394317 0.0113510275 0.15777622 0.10699606 -0.19686384 -0.29644334 0.05505728 0.26997814 -0.104800425 -0.044099 -0.020639816 0.053841557 0.03926271 0.24354585 -0.22621731 0.4777717 -0.3176984 -0.34786725 -0.08002719 -0.31393048 -0.098107874 0.08813543 -0.07700593 -0.143162 0.20112309 -0.09177983 0.6146128 0.26510456 -0.12691754 0.15661453 -0.080069184 -0.0626716 0.0666609 0.13682945 0.07733631 -0.044554025 -0.31431967 0.029405806 -0.07293958 0.03746336 -0.0032645622 -0.06078013 -0.23818049 -0.19613442 0.17460215 0.1901087 0.05686659 0.2620757 0.39930114 -0.34236664 -0.14333583 0.0383588 -0.085760415 -0.29711884 -0.13116759 0.26710144 -0.21796972 0.055361073 -0.34960806 -0.14565407 0.24191017 0.2257604 0.02566976 0.021329468 0.36467302 0.30101466 0.0413522 -0.33415526 0.0017683986 0.22070298 0.060960162 0.33368853 -0.062142972 -0.29773355 -0.13832419 0.043914523 0.09785985 -0.11690746 -0.18237707 0.06267872 0.15654463 -0.1755688 -0.08040489 0.30318096 -0.09124999 0.039262325 -0.24742822 -0.20453708 -0.25428376 -0.16932304 0.2047453 0.1100688 -0.15428713 -0.1578232 -0.08833138 -0.018849522 -0.06352108 -0.09932826 0.23355511 0.03263723 0.07956375 0.08111554 0.0034618634 -0.16413951 0.18026197 -0.005291176 -0.119355366 -0.3638583 0.064385064 0.15081164 -0.11970826 0.39315864 0.006584184 -0.10946494 -0.22394519 0.13610029 0.21020511 -0.06884194 -0.051491927 -0.2466766 -0.22387849 0.11597277 -0.15191834 -0.006580796 -0.15844202 0.30555704 0.20710371 -0.12573618 0.18907985 0.071770266 0.08196811 0.23510674 -0.14427386 -0.03686078 -0.10052827 0.05346839 0.021775521 0.02077956 0.028522803 0.00813126 0.02162992 -0.040838987 -0.031341 0.21496823 0.1785185 0.032448303 -0.042523727 0.010284079 0.06573602 -0.07773407 -0.018038074 -0.053027455 0.2122316 0.20148918 -0.24353437 -0.32135868 0.16156833 -0.14759986 -0.10119451 0.3533223 -0.13771653 0.10534325 0.27973303 0.087470844 -0.08506024 -0.1336894 0.31881797 0.4646162 -0.0462135 0.007030677 -0.14539094 0.18733579 0.10201704 0.02089476 -0.04292813 0.04162603 -0.02519021 -0.069958396 -0.13653025 -0.3406906 0.12461177 0.16032013 0.1373979 -0.30600137 -0.0031619503 0.12392592 0.33230317 0.2133745 0.058830652 0.09261588 0.27090368 0.17139344 -0.023185147 0.02942319 0.21141577 0.1893112 -0.25946918 0.081749864 -0.1702067 -0.04507066 0.23040758 0.07857603 0.12897375 -0.31170708 0.08269058 0.08076255 -0.030347364 -0.064038455 -0.058756918 0.2609086 -0.22554563 0.20144701 -0.027974864 0.11598665 0.30673325 0.028277164 -0.09179047 -0.007054723 -0.1789621 -0.13161491 0.009084438 -0.071439125 -0.20824367 -0.051957063 -0.19912651
( 0.47087413 -0.15085909 0.19525005 -0.15912397 0.020991113 0.20990439 0.13861771 -0.09941732 -0.32572752 -0.12559143 0.4987114 0.08648645 -0.15223068 0.089605086 -0.041867826 -0.016345637 -0.04147223 -0.09103842 -0.16102745 -0.10989258 -0.4576351 -0.36328757 -0.11147864 0.34475404 -0.23040733 -0.2199673 -0.24291219 0.16578044 0.15918598 -0.14312471 -0.0838919 0.000469533 0.28431314 0.2267789 -0.15813239 -0.098696195 0.09478274 -0.19449544 0.10158062 -0.36116177 -0.004312819 0.31408575 -0.17087142 -0.11383059 -0.17879465 0.15623304 -0.00028703568 -0.0837934 0.21807869 0.1797136 0.49155292 0.08231587 0.058727093 0.13043983 0.36631858 -0.1334764 -0.13667056 -0.16256423 0.12468726 -0.07354595 -0.09289566 0.12399052 0.1183774 -0.06852818 -0.1521055 0.09062129 0.12736683 -0.11417116 0.07304116 0.3900949 -0.028461508 -0.32712668 0.09991642 -0.34440315 -0.46293098 -0.19474861 -0.24914506 0.099408455 0.27375755 -0.028223807 -0.18603277 0.1237231 -0.01495362 0.09263869 -0.16460311 -0.08378926 -0.057596948 0.02482065 -0.18972722 -0.20958678 0.5267968 -0.4083773 -0.17563744 0.18574923 -0.24189222 -0.09829636 -0.12097101 -0.12731524 0.13432775 -0.2780256 0.025074987 0.046809252 0.29981726 -0.018783133 -0.09046527 0.1360125 -0.22278133 -0.16887192 0.0934488 0.29691458 0.27082148 -0.072499104 -0.10233554 -0.039348364 0.13521363 -0.011502534 0.023823416 -0.059099447 -0.22211649 -0.029217413 -0.059405416 -0.13098906 0.32505137 0.34080896 -0.119658865 -0.07300278 -0.094053775 0.058431506 0.23070179 -0.21273579 -0.017512765 -0.12968864 0.114830054 0.060666192 -0.1709862 0.21229523 0.05116132 -0.06573232 0.24303527 0.3145956 0.17653406 0.05932583 -0.37525403 0.099409595 0.07925807 -0.03699321 0.016071454 -0.019753946 -0.01704339 -0.09350765 0.11105255 0.010607861 -0.2806323 -0.48405176 0.13815205 0.23910272 -0.11405689 0.25698775 -0.076287374 0.029283382 0.326407 0.21174175 -0.05850356 -0.28898528 0.0015411129 0.18424895 0.17415099 0.24967997 -0.2615159 -0.37757304 0.15112464 -0.3199096 -0.19506334 0.28682783 0.0097846305 0.07355051 -0.106679365 -0.13862146 -0.20341097 0.17585441 0.06086402 -0.13687107 -0.105876416 -0.11485209 0.07110123 0.60011506 0.20389497 0.3347089 -0.12672399 -0.2805454 0.34451202 -0.09373648 -0.20565523 -0.2876269 0.1883209 -0.13337521 -0.17204298 0.03168785 0.22061573 -0.12648165 0.2926303 -0.4440743 0.16570619 0.40460283 -0.1698941 -0.05762781 -0.04739893 -0.2681154 -0.08512941 -0.014135627 0.11050324 0.18946405 0.21614791 0.39800277 -0.032575183 -0.124345645 0.1873357 0.03775241 0.24997392 0.072498634 -0.2195634 -0.040121444 0.0725692 0.31294322 0.039721746 -0.36924154 -0.18462607 0.33552393 0.12459424 0.099440426 -0.35557985 -0.13875076 -0.022679355 -0.066188246 -0.038688138 -0.42832252 0.22162318 0.16771516 -0.13879703 0.12932926 -0.105686545 0.15288359 0.32613873 -0.2499932 0.094886504 -0.25409195 0.11394113 0.06359014 -0.12606797 -0.18144742 0.17453375 0.082076676 -0.28508437 0.14997165 -0.13264774 0.1851277 0.20968011 -0.10976866 -0.2950026 -0.008061216 0.052958522 0.33385423 0.07483305 0.2420942 -0.027803797 -0.38163874 0.077592514 0.1853742 -0.38211066 0.088273175 -0.0132993255 -0.056272727 0.44989154 -0.09066224 0.107114874 0.15581879 0.06955205 -0.046224087 -0.13497806 0.18924311 0.06887775 0.021667989 0.46402782 -0.20053433 0.0785915 0.18294343 -0.15677601 0.17981151 0.1038312 0.09034296 0.0464836 -0.29063454 -0.15337062 0.043987755 0.03512981 -0.084356636 -0.17842485 -0.14227434 -0.13783078 -0.18536745